1139 200
1038 0.094098575 -0.026324058 0.11011162 -0.036206163 0.049623415 -0.10207617 0.13884488 -0.013243974 0.15947422 0.13928631 0.15453398 0.14355053 0.09550469 -0.03760107 0.05089756 -0.0889207 0.03711999 -0.13478981 -0.017782034 0.08713407 0.04888038 0.11351356 0.085930794 0.052832138 -0.078568116 0.04637684 0.0454891 -0.08739645 0.020145336 -0.0071274852 0.07940044 0.0727529 -0.10858482 -0.021408278 -0.017116847 0.05021199 -0.11822753 0.10192061 0.07181122 -0.1401091 -0.11522494 0.12922096 -0.046693213 0.1375202 0.04565411 -0.091488466 -0.0058141393 -0.08054781 0.04379901 0.02678947 -0.080890544 -0.00012914713 -0.012828118 0.0036516415 0.041933298 0.024314946 0.10094957 -0.013861639 -0.122268796 -0.08346333 0.113808036 -0.1427408 -0.036772866 0.21067443 0.044748295 -0.102920234 0.028845273 0.06695499 -0.093860544 0.0090485485 0.14025335 0.08604012 0.028685974 -0.056257248 -0.21946505 0.22223397 -0.029097594 0.0826074 0.0045507285 0.19444658 -0.11868562 0.16039991 -0.08794824 -0.12534338 0.06618792 0.0033591986 0.034548238 0.012285145 -0.009622378 -0.02530604 0.051217597 0.13150716 0.19343401 0.082520194 -0.061709754 -0.18263206 0.034462355 -0.08056717 0.06883494 -0.05887601 0.002617388 0.1342291 -0.15668358 -0.07933601 0.073432356 -0.12188526 0.04813407 -0.062714435 0.021056462 0.011099007 -0.14469792 0.002571161 0.0726132 0.06430368 -0.17020138 0.031855352 0.044656634 0.15712881 0.10302444 0.07394305 0.04752176 0.027557917 -0.085295625 0.07811846 -0.065171786 0.008926047 -0.024547134 0.005158174 -0.18485406 0.0011338982 0.051650945 -0.054119322 0.023042575 0.0779066 -0.14313602 0.076271355 0.05805086 -0.020771101 0.12110829 -0.06869627 -0.022175772 -0.000649618 0.11036688 0.04240121 0.015949199 0.07583817 -0.091434225 -0.07358475 -0.0326684 -0.10712993 -0.070063554 0.10980593 0.09898445 -0.07690646 -0.05436307 -0.11122217 0.052377053 -0.09488382 -0.026979055 0.045828976 -0.03831546 0.080071725 -0.1015246 -0.06414205 0.058553115 -0.004056039 -0.109845564 -0.017424777 0.12180852 0.042491857 -0.019968938 -0.006787319 -0.042247403 0.07015105 -0.050144725 0.014989119 0.16231523 0.07032751 0.19607686 0.024670918 -0.1782533 0.11122417 -0.019382885 -0.03808461 0.07869977 0.10339844 -0.051501077 0.0117927175 0.21293043 -0.045750063 -0.13521652 0.067459375 0.1788413 -0.06471692 0.012964722 -0.059269603 0.17198977 0.09971782 0.19164096 0.0021708265
679 0.17730303 -0.14666936 0.09472274 0.12976149 -0.033683248 -0.11189256 -0.12417222 -0.09419999 0.06466223 -0.038246125 0.1439016 -0.054456208 -0.016926687 -0.026086567 -0.018219005 -0.092337005 -0.013122745 -0.06675758 0.05855372 0.09290367 0.007598111 0.027009185 -0.015006904 0.012148713 0.07289965 -0.15909731 0.040502783 -0.013526389 0.035053376 0.0650827 -0.034010753 -0.024335068 0.018381199 0.00083306804 -0.028821185 0.03257616 -0.082863495 -0.04734342 -0.1617277 -0.012633282 0.036488187 0.14596093 -0.069272205 -0.057804164 0.008180194 -0.12044761 -0.15354766 -0.016092058 0.079308875 0.12694527 -0.16088404 0.113750525 -0.08501102 0.061072048 0.06962462 -0.118277974 -0.06861123 0.030471304 -0.10365363 -0.059045162 0.19525641 -0.021989517 0.094181344 0.23882829 -0.025738563 -0.056028258 -0.07442589 0.037538193 0.09875535 0.10049024 0.047610875 -0.008676842 -0.06756191 -0.108152226 -0.13950345 0.13118409 -0.14300762 -0.09730779 -0.13645321 0.11620396 -0.03950126 -0.04257992 -0.026885169 -0.22664645 0.103185795 0.15893371 0.018881664 0.06858505 -0.03744845 0.0045093535 -0.06896646 0.049330473 0.09715449 -0.00866086 -0.036856636 -0.064320974 -0.02554836 0.12759532 -0.060999196 0.040163673 -0.00156011 0.030751359 -0.011709144 0.07351475 -0.015197695 -0.060693305 0.1073074 0.010513995 -0.14855775 0.04762463 0.005736141 -0.13916306 -0.09965697 -0.20999587 0.0788954 0.14112978 0.0005196491 -0.012530839 0.056012962 0.03842106 -0.049115457 0.0815394 -0.14257568 0.0132160615 0.021768128 0.01848469 -0.12199464 0.008948451 -0.025276484 0.087362364 -0.08286718 -0.03583661 -0.024650058 0.11264876 -0.027880285 0.13779747 0.1260722 -0.0976626 0.10921475 -0.28164247 -0.07767627 0.030787315 0.12975813 0.035595007 -0.019137463 0.040032677 0.028182482 -0.10200242 0.0025598458 -0.11522547 0.1355205 0.0027658017 0.08151696 -0.08497097 0.1487263 -0.0970436 0.1699222 0.066098936 0.0400143 0.056756966 -0.012231852 0.028246084 -0.117292665 -0.047720566 -0.072472185 0.1046349 -0.10663065 -0.0022707873 0.05544759 0.06808421 0.04904523 0.038789306 -0.09905019 0.1276254 -0.0043127663 -0.11774116 0.07202021 -0.0015724206 0.06374046 -0.044680845 0.040856767 0.13249746 -0.07721542 -0.050517052 0.10326285 -0.051231652 0.046822764 -0.049923908 0.061068524 0.018811781 -0.10212646 0.038697317 0.1000117 0.067888945 -0.015524554 0.03945084 0.038103215 -0.029170465 0.14511234 0.1573047
514 0.10841109 -0.09530543 0.16891287 0.06112096 0.04554004 0.01232083 0.07188927 -0.10427303 -0.092190236 0.081073046 0.06532271 0.034842078 0.04630654 0.0068107005 0.12694642 -0.051783912 -0.04283144 -0.019302798 0.0929788 -0.0054817908 -0.037555475 -0.066078216 0.08798133 0.108957164 0.04237102 0.06562259 0.007076452 0.1251158 -0.025277093 0.046442177 -0.14892797 -0.006113058 -0.11976514 0.035959378 -0.13279271 -0.04768836 -0.037859816 0.10046919 -0.012496513 0.073451795 -0.067060195 0.20486031 0.043029953 0.04473248 -0.058168624 0.04064251 -0.2065737 -0.058747932 0.075467646 -0.04997217 -0.14279239 0.1527437 0.044500764 -0.017671289 -0.00784301 -0.030675612 -0.03952755 -0.054841593 -0.2016943 0.008506433 -0.012432205 -0.1761708 0.015094519 0.2499441 0.10171725 0.01456333 -0.14449474 0.019789316 0.06820002 -0.044982355 0.08606785 0.04585082 -0.044419654 -0.21778202 0.06719812 -0.039623845 -0.08657994 0.035138004 -0.18079028 0.07799145 -0.050409 0.09141675 -0.19993286 -0.20450076 0.05654393 0.27125028 -0.059480194 0.08429833 0.17076108 0.018997205 -0.039946184 0.07052979 -0.11579195 -0.08511118 0.12589869 -0.15953176 0.022119386 0.14154443 0.01809609 0.013644837 0.066962 0.14454985 0.004786645 -0.05915392 -0.07906832 -0.028746432 0.08033977 -0.016356317 -0.1515246 0.21238816 0.0335518 0.079481155 -0.020703124 -0.103397444 0.09783296 0.04612516 0.14137407 0.088975675 0.052857853 -0.052401368 0.0041896245 0.06714525 -0.047731277 -0.059865795 -0.025210772 0.11452418 -0.07090005 -0.032144103 -0.0514312 0.053894483 0.123286664 0.027392367 -0.028810114 -0.03192865 -0.11872345 0.013362948 -0.065986745 0.105431624 0.14975001 -0.18866251 0.07952695 0.08926169 0.0318136 -0.08494036 0.01586739 -0.19481684 -0.20138386 -0.06878141 0.0056079375 -0.13196974 0.194967 0.057219815 -0.03179241 0.07517845 0.105501 -0.07389894 0.03702664 0.111449406 0.10523454 0.067503475 0.12239224 -0.072143465 0.053271025 -0.0738139 0.07615176 0.040359437 -0.1979869 0.0052873665 0.042787068 0.07733743 -0.048473887 -0.005248499 -0.08279802 -0.005877954 0.019036934 -0.017368304 0.101660796 -0.11228171 -0.06559105 -0.06328756 -0.24299464 -0.054658502 0.03908501 -0.05600859 0.02735681 0.13706174 -0.0914059 -0.064084046 0.096693374 -0.061134662 -0.07881798 -0.04180479 0.03354587 -0.0087324 -0.0028910083 0.064072214 0.041173324 -0.009159492 0.0767361 0.09156396
264 0.071248256 -0.031049851 0.19513191 0.077731006 0.0040935967 -0.1149704 0.0703522 -0.107774444 0.017321337 -0.052786537 0.006806001 0.015237061 0.022596812 0.08671529 0.05722267 0.020529948 0.122501306 -0.022884674 0.026167674 0.17805944 -0.087136224 -0.12286141 0.025483428 -0.03863884 -0.01668368 -0.068941936 0.16011834 0.046897814 -0.036994554 0.036309183 0.06876817 0.036568347 -0.0003477202 -0.08541956 -0.098887786 0.10923518 -0.03580315 -0.08807762 -0.18466716 0.120021425 0.009894112 0.17125666 -0.053040538 -0.15065336 0.0073768827 -0.11187662 -0.034500804 0.18989158 5.8315174e-05 -0.0028318353 -0.18201862 0.17865933 -0.08700754 -0.16324887 0.073656745 -0.020308843 0.018198518 0.04917309 -0.124593504 -0.09939999 0.12810783 0.072874725 -0.07334707 0.1110361 -0.027642561 0.0863435 -0.010794179 -0.07480776 -0.088690504 -0.0021302418 -0.015472067 0.001141246 -0.070514634 -0.07657107 -0.10369913 0.018008344 -0.048229236 -0.084579304 -0.13319243 0.11816373 -0.09502448 -0.079571314 -0.119367965 -0.14451173 0.027699959 0.19270079 0.050872788 -0.06637753 3.5478814e-05 -0.004467118 -0.0346176 0.101798564 0.1469092 0.021121185 0.21057601 0.11543713 -0.068387926 -0.210186 -0.068656385 0.13710946 -0.14183979 0.093445286 -0.16123669 -0.074887566 0.0012560048 -0.059237204 -0.031503823 -0.015817767 -0.11994746 0.26768064 -0.027196286 0.0121224625 -0.11942951 -0.07905341 0.07230879 0.08744148 0.15921201 0.11260718 0.0723808 -0.13554388 0.08058715 0.07501179 -0.073831335 0.053714525 -0.049235437 -0.065740556 -0.172409 0.12188471 -0.12755194 0.09025679 -0.0136787 -0.078095704 -0.07878408 0.088600025 -0.11081553 0.15333177 -0.03270407 0.101826906 0.112182036 0.029356476 0.122949995 -0.04866415 -0.00073406665 -0.0856893 0.06011579 -0.06535096 0.035732366 0.0016210151 0.029764496 -0.11299647 0.10498382 0.05622333 -0.0625208 -0.21469396 0.18329057 -0.29524714 0.14137428 0.011767767 -0.046896126 0.09325773 -0.046310708 0.020013688 -0.03653654 -0.045455273 -0.17707044 0.015483641 -0.10599025 0.1736817 0.010213792 0.16338086 0.057976007 -0.027236694 -0.08978833 -0.032532573 -0.040196862 0.03998613 0.15111157 0.09582423 -0.07900379 -0.13664022 -0.053807613 0.14860174 -0.12028483 0.14880645 0.21328704 0.10361532 0.12892365 0.104997404 0.2135874 -0.07068967 -0.028156906 -0.03321244 0.13227381 0.08910583 0.006727625 0.026705524 -0.13194948 0.1631544 0.06699718 0.15501477
484 0.04846052 -0.17041442 0.0954623 0.07758414 0.08445202 -0.07308572 0.05075616 -0.09001223 -0.118897475 -0.01616973 0.15815057 -0.0012015667 -0.012801893 0.05997141 0.04024735 -0.14393978 -0.17204289 -0.086955436 0.09298396 -0.049952075 -0.09533629 0.12633897 0.096532926 0.10531499 -0.006340526 0.032577187 0.0075844415 0.0009752365 -0.019747421 0.087492354 -0.045052927 -0.104321495 -0.09558645 0.0036598921 -0.06412071 -0.029343871 -0.05786164 0.074728794 -0.037745688 -0.064662956 0.03629188 0.13698329 -0.08979569 0.13823241 -0.07531207 0.1310604 -0.12027807 0.09482331 0.010601618 0.12872711 -0.053826675 -0.060789213 0.0031753278 -0.030593263 -0.0102149 0.04280709 0.00016379995 -0.09975364 -0.23988621 0.046928316 0.030981323 -0.17714903 0.044154715 0.17710486 -0.05550019 0.0088109085 -0.15855815 -0.027382482 0.056493737 -0.06030753 0.028915448 0.00582299 -0.061969757 -0.030693963 -0.034661576 0.032908257 -0.058003288 0.0050426973 -0.3092515 0.0777107 -0.016639078 0.124944195 -0.102096766 -0.23815876 0.07910486 0.10375843 0.0904366 0.004494318 -0.063758165 -0.02242349 -0.10008275 0.0227284 -0.06968882 0.03910366 -0.046731655 -0.017885184 -0.006705174 0.14397362 0.02605043 0.038522348 0.09799899 0.1509449 -0.022661844 -0.018511381 0.096520334 -0.003216086 0.03387786 -0.062185604 -0.15646026 0.07329235 0.034361538 0.027408784 -0.14323448 -0.017090848 0.03792266 0.06971031 0.18425678 0.059198737 0.024959221 -0.03365002 0.10979173 0.03471786 0.046608903 -0.019496918 -0.047139484 0.09836055 -0.044585954 0.10362889 -0.18337011 -0.00046466105 0.1071604 -0.07935824 0.102430575 0.077288024 -0.035742734 0.09695666 -0.07550566 -0.12763125 0.22296253 -0.28557605 0.11335154 0.20663014 -0.05536698 0.044205714 -0.031030675 -0.15061921 -0.10609362 -0.052378073 -0.012254332 0.073916316 0.18376324 -0.057249032 -0.08010225 0.02424075 -0.10089801 -0.16300945 -0.12558086 0.060699955 0.019825075 0.025746398 0.05387534 0.21872936 -0.07563968 -0.07608087 -0.015169415 0.06753657 -0.09236719 -0.04838835 0.102568574 0.14810014 -0.054022517 0.033085708 0.07107666 0.115769744 0.048966657 0.055991262 0.016874585 -0.13575684 -0.002824667 -0.18442105 -0.11166214 0.059991147 -0.08458331 -0.009826795 0.00061320927 0.24591146 -0.033311248 -0.010724071 0.053035486 -0.022509651 -0.11003281 -0.022535995 -0.0041753286 -0.073473416 -0.0057236482 -0.108432144 0.014894409 0.13603413 0.13552338 0.12486072
41 -0.028222825 -0.12117503 0.06972551 -0.044480383 -0.03412409 -0.17464747 -0.046663474 -0.12302653 0.045691557 0.07729788 0.07035329 0.11280232 0.09635947 0.057291932 0.13163535 -0.009704709 0.04272913 0.019034112 -0.08663456 0.027618395 -0.036190648 -0.05986342 -0.0002502403 0.034999054 -0.036649235 -0.023164464 -0.019338945 -0.014016983 -0.006006252 -0.032604378 0.10480938 0.04115219 -0.030715255 -0.12752035 -0.09400914 0.083572544 -0.02973167 0.0071152123 -0.06935217 0.037854698 0.023543486 0.1314507 -0.032242004 -0.013968085 0.025242679 0.030165672 -0.08029944 -0.08683986 0.052883223 0.07540294 -0.029611094 0.06645603 0.07955866 -0.11258983 0.043072496 0.03548523 0.01499419 -0.119526066 -0.02001312 -0.32345468 0.03688336 -0.11695309 -0.09160827 0.13198972 -0.06934572 -0.1238 -0.11277975 0.23815097 -0.12457184 0.04606975 0.15255828 0.0795173 0.03940303 -0.14914854 -0.15850554 0.12987004 -0.19388948 0.011675441 -0.13616888 0.13585743 -0.12611592 0.15717375 0.0834886 -0.07651228 -0.02565714 0.16740777 0.061309878 -0.019624248 -0.070875354 -0.026725309 0.04426718 0.03579895 0.19244054 0.11419451 -0.10210447 -0.09271418 -0.067004606 0.00939683 0.07670569 -0.10791258 -0.016458659 0.12702632 -0.13645001 -0.05729427 0.018588545 -0.2031729 0.05384438 -0.09076477 0.018202228 0.074724756 -0.21091753 0.0013449774 0.05021 0.12831047 -0.17804542 0.096801944 0.0729241 -0.011964084 0.06676243 0.14749396 0.011510046 0.0974461 -0.059351414 0.2235673 -0.016159903 0.08453935 -0.12673852 0.02793771 -0.15883507 0.1255301 0.08518546 -0.10953295 -0.030140493 0.1598392 -0.05911079 0.071152344 0.07191342 -0.17760982 0.12198613 0.057927534 -0.12583171 -0.060267974 -0.065437846 -0.056825854 0.051592544 0.06947133 0.057611126 0.014671315 -0.008298534 -0.17698927 0.13085763 0.032359354 0.29315978 -0.015287425 0.019314969 -0.04389475 0.07300291 -0.2376142 -0.025860092 -0.0117331045 -0.0071466677 -0.010237728 -0.05884255 -0.068568684 0.06479329 -0.003709382 -0.047794893 0.0036650794 0.04430895 0.026216652 0.020147849 0.04788276 -0.11719747 0.08757442 -0.06070075 0.035088588 -0.022778751 0.0070015043 0.12156118 -0.00876841 -0.047759708 0.086939946 -0.085484974 0.050608907 0.16047978 0.11246843 -0.07758664 -0.0007669483 0.11891969 -0.026068825 -0.036723386 0.034799013 0.14968109 0.096613705 -0.09390904 -0.01674565 0.23250449 0.11964156 0.1058734 -0.11182548
1134 -0.039103962 -0.1581475 0.08360702 0.073150374 0.13459484 -0.13661602 0.057359066 0.0016719274 -0.03075734 -0.15127869 0.081550665 0.116767935 0.033681013 0.1766807 -0.07494843 -0.12187932 -0.11342662 -0.065716654 0.023637194 0.086669944 0.008501396 0.03901723 0.09234756 -0.039764225 0.057612833 -0.015317409 0.114666946 -0.0051382687 -0.08354518 -0.07759217 -0.08574821 0.025534231 -0.21031973 -0.081310816 -0.11650328 0.051801246 -0.07491322 -0.044714373 -0.106523424 0.017797476 -0.15087593 0.20579003 -0.09502809 0.090387106 -0.035890646 -0.14460008 -0.016324095 0.15049087 0.17841813 -0.09814194 -0.12954973 0.11149558 0.094894774 -0.17636311 0.008689658 0.07772199 -0.026223857 0.14317888 -0.08340623 -0.015162246 0.15345149 0.0716579 -0.022046095 0.12893452 0.031601332 -0.033214163 -0.10194301 0.040901076 0.07498911 0.07949502 0.041833803 0.065520786 -0.030471003 -0.024860196 -0.021554256 0.05722842 0.020505553 -0.040135663 -0.03647806 0.19260968 -0.014296707 0.10234221 -0.12297653 -0.21647869 -0.008005616 0.11446134 0.06976228 -0.04479691 -0.07460061 -0.021262052 -0.023939863 -0.018719286 0.08687759 0.040468983 -0.081065066 -0.21050781 0.0129783675 0.092275046 0.055718016 0.16156101 0.0612375 -0.0028569088 -0.041910022 0.029673085 0.047434196 -0.07506366 -0.008832448 -0.04190506 -0.112033635 0.20717117 0.016142802 0.05892541 -0.23194925 -0.0961109 -0.04350916 -0.09532445 -0.0325787 0.1748468 0.20622517 0.014042016 0.03265521 0.065182835 -0.14668837 0.038096704 -0.0042613777 0.057628814 -0.06502964 0.03506949 -0.048556928 0.0037214227 -0.1411637 -0.119271524 -0.105467916 0.057063304 -0.1801631 0.2840506 -0.0608592 -0.110217944 0.031438164 -0.2156152 -0.09032124 0.03501803 0.102576256 0.104102954 -0.044940375 0.19456203 -0.008792114 0.14131774 -0.10143444 -0.18563396 -0.045794427 0.26204264 -0.04009206 -0.20292084 0.03429502 -0.14632113 -0.019237507 -0.015856624 -0.047670715 0.12758677 0.028970467 0.026130097 -0.07783612 0.027687553 0.046907663 0.031898003 -0.14088754 0.003138069 0.032244146 0.0406196 0.04703315 0.03224411 -0.16339396 0.01630389 -0.13800263 0.1504538 0.048184987 0.10602324 0.0685862 -0.06374905 0.04855335 0.1346531 -0.12100295 -0.23425837 0.103675045 0.047889236 0.04729541 -0.12737308 0.03930388 -0.036184322 -0.017961577 -0.10186865 0.097396545 0.10612127 0.1291735 0.111232795 -0.06346674 0.10639925 -0.008637452 0.0018252559
765 0.0124486005 -0.23764016 0.030258385 0.12409766 0.08307977 -0.12344366 -0.013725589 -0.08875023 0.17023705 0.08144354 0.19661759 0.17618836 0.05067028 -0.04513248 0.09515064 0.06489003 0.10955712 -0.04397211 -0.16878158 0.12509798 0.01566274 0.07617387 0.08029194 0.07733194 -0.08127612 -0.027999757 -0.035196137 0.04118413 -0.01879134 -0.0045563006 -0.03159824 0.12539828 0.038113825 -0.049302567 0.03538893 0.08871509 0.04919521 0.1303682 0.12887071 0.030353544 0.024666604 0.15902823 0.05102416 0.0065475595 0.1666386 -0.0025656025 -0.08681428 -0.15289967 0.07549396 -0.106723435 -0.018469533 0.063772395 0.025526987 -0.017450608 -0.120013006 -0.20740955 -0.063991964 -0.08364482 -0.0801041 -0.252974 0.10825977 -0.025898982 -0.04407743 0.13808596 0.0052551837 -0.13234916 -0.047277514 -0.00018529041 0.10063769 0.06256477 0.015003767 -0.072612174 -0.0039924025 -0.13112296 -0.36110538 0.12974663 -0.053225633 0.004804608 -0.08273068 0.08978488 -0.14570333 0.15571435 -0.08546164 -0.094048195 0.09897407 -0.0053157513 0.090784065 0.09692773 -0.002405263 -0.07323593 0.04854646 0.02723264 0.1297081 0.02923141 -0.11808255 -0.08508375 -0.0049649905 0.007313118 -0.06556511 0.079068154 0.056188595 0.18846501 -0.08906485 0.06696964 0.072854646 -0.07729393 -0.08474743 -0.0748004 -0.10809068 0.01605812 -0.15765981 0.021122437 0.16424766 0.14050202 -0.029994827 0.00623769 0.01869156 0.15517814 0.103446744 0.022916216 0.14179933 0.011029273 0.06381228 0.0019384633 -0.096243165 0.025629474 -0.06443032 0.0668272 0.003873002 0.18290478 -0.005706596 0.06071009 -0.098789714 0.047601927 -0.20661382 0.11601622 -0.061149906 -0.14964047 0.10350897 -0.017223034 0.085442886 -0.027973896 -0.048130468 0.061134942 0.011246456 -0.013815718 -0.022735003 -0.090217486 -0.023626892 -0.1312223 0.17571017 -0.005887331 0.06654826 -0.082464814 -0.013562396 0.021541804 -0.05119898 -0.051789477 0.080238864 0.12364247 0.050918702 0.043905236 0.09063201 -0.054246724 -0.069891654 -0.023854421 -0.14042926 0.13759427 -0.08438546 0.1929795 -0.062932976 0.04837084 -0.05606275 0.13431485 -0.044711076 -0.09753256 -0.11258216 0.019192569 0.02112398 0.053861782 -0.06938346 0.10471028 0.053637005 -0.02653573 0.18460454 0.13795145 -0.051364087 0.0018835794 0.07290485 0.01878351 -0.15510722 -0.0023409328 0.0063127386 0.08884166 -0.04278204 -0.10989552 0.07687416 0.1001593 0.09613455 0.039115187
1095 0.07547397 -0.18975471 0.16801183 0.03290732 0.029574962 -0.058708712 -0.14284171 -0.19915733 -0.009294416 -0.005666969 0.072342336 -0.08159863 -0.037427075 0.0047619594 0.13966136 0.005180133 -0.08541265 -0.11006867 0.018607944 -0.130031 0.11066524 -0.01215838 -0.16952094 0.0025443423 0.2498003 0.037985817 -0.050244167 0.00859004 -0.14506102 -0.121100046 -0.030069344 0.05765997 -0.07205945 -0.06576739 -0.1697713 0.1235474 -0.09415864 0.06268987 -0.08644933 0.18087411 -0.084441714 0.28990772 -0.038661037 0.010902433 0.12101696 -0.13856056 -0.00792914 0.040826984 -0.013470852 0.22574334 -0.14350516 0.03123385 0.16104423 -0.0012818649 -0.07270359 -0.009978796 0.02217652 0.1425775 0.016414544 0.09536962 -0.008397073 -0.08748479 0.14615482 0.10685689 0.09892506 -0.067956574 -0.077333584 -0.034165885 -0.09058505 -0.05001827 0.050703842 -0.012904535 -0.06546975 -0.093678296 -0.01433717 0.006087022 -0.17474954 0.016588336 -0.16985978 -0.021920688 -0.18171471 0.15023433 0.03809094 -0.04426787 0.05038752 0.18137936 0.06288047 0.16095558 0.063485324 0.10886073 0.032653887 -0.047409337 0.0064045046 -0.060026217 0.040702354 -0.02548107 0.030482851 0.042715315 0.024084747 0.08869433 -0.0216265 0.06248733 -0.12073992 0.04438524 -0.018889751 -0.06050186 0.025286132 -0.22495323 -0.12097383 0.1991475 0.13152418 -0.05933983 -0.17374523 -0.07236077 0.010184393 0.11685229 0.14853261 0.1275687 -0.04753923 0.050361678 -0.012508949 -0.04265457 0.04050141 0.043302786 -0.07718574 0.079901926 0.015295321 0.12789318 0.036857877 0.14747545 0.07269698 -0.096621044 -0.019125821 0.09782815 -0.07147194 0.13160662 0.09255497 -0.018680802 0.06338862 -0.03073298 0.01875192 0.08483306 -0.025603227 -0.071580745 -0.15575811 -0.22890398 -0.071658015 -0.10106014 0.090740785 -0.033182647 0.16586085 0.04979891 0.09734161 -0.11904467 0.1019586 -0.22945797 0.08448987 0.033077378 -0.002113165 0.045485266 0.036027886 0.17140524 0.097136885 0.179561 0.14552043 0.031357646 -0.2896423 0.09639052 0.13090381 0.04126567 0.09862526 0.014337418 -0.06364915 0.061602507 -0.021273797 -0.021009566 0.03786808 0.076117165 -0.020596 -0.08737247 -0.052295174 0.0139938295 -0.09467894 0.06621805 0.07696743 0.17021604 0.00921095 -0.13266759 0.042974032 -0.1256065 0.07648547 0.041246302 0.0035214615 -0.00066117354 -0.16087243 0.060378656 0.153438 0.07469321 0.016171208 0.10602686
1124 -0.037711218 -0.18591633 -0.051923532 0.0033841527 -0.056146413 0.039589304 -0.08324882 -0.1334871 0.07795938 0.015762605 0.15674408 -0.022471616 -0.052683234 -0.20727053 0.21630898 0.009844185 0.061650682 -0.05074361 0.08377264 -0.1370994 0.061359957 -0.010971728 0.07474404 -0.05484735 0.1169138 0.14051317 0.12920348 0.03588006 0.0669045 -0.05841689 -0.037713114 -0.10769478 -0.08602213 -0.19115764 -0.046512906 -0.06966061 -0.10450222 0.12278615 0.2370953 -0.09283429 0.11206875 0.10793445 -0.16170552 0.018674834 -0.010637816 -0.031855088 0.05190796 -0.10466171 0.103467375 0.08232593 -0.037414815 0.14755303 0.017099852 0.04868001 0.11470365 0.033801187 0.005267537 0.0496602 -0.08924637 -0.10998763 0.056459624 -0.07534286 -0.11243003 0.20194528 -0.20434408 -0.0852781 0.07078129 0.008389668 0.045909666 0.101066686 -0.06643758 0.061515026 0.14174202 -0.120721824 -0.095278 0.12979409 -0.1696224 -0.009433304 -0.074144684 0.014420728 -0.06501352 0.2263403 -0.03731305 -0.1934945 0.003471436 0.2428855 0.10158268 -0.106488645 0.06745835 -0.025500713 0.012404078 0.048327267 0.044312462 -0.02370884 -0.048138537 -0.07403848 0.025184177 0.0046277954 0.1568284 0.13873726 -0.11956725 0.12205074 -0.09794628 -0.15234369 0.047624744 -0.11834094 -0.015303536 0.03786584 -0.100586124 0.067879535 -0.020877354 0.10555128 0.015634812 -0.12723921 0.04446377 0.049897753 0.12135567 0.020733794 0.16912025 0.07886836 -0.07138517 -0.05661419 -0.014410726 0.14088783 -0.022833113 -0.037304793 -0.16367632 0.1702216 -0.0990716 0.035555996 0.035926256 -0.106916696 0.047831275 0.1288148 -0.059663992 0.14215544 0.031169446 0.076845676 0.018197453 -0.12122923 -0.07387257 0.07830028 -0.09353918 -0.006847398 0.042231858 0.022718627 -0.14548695 -0.16152889 0.02024228 -0.06492991 0.1586742 -0.06741016 -0.023297798 -0.296995 0.10793214 0.025245532 -0.07710763 -0.046556722 -0.20380965 0.118450254 0.0686078 -0.0037279993 -0.19110341 -0.15168348 0.012689144 -0.27012005 -0.1225136 0.019075392 -0.0369162 0.116184555 -0.10669058 0.1062838 -0.015027998 0.09586041 -0.094191745 -0.033178564 -0.04678953 -0.005256244 0.0033577315 -0.125808 0.019635295 0.10665678 -0.11309278 0.043658186 -0.07584137 0.17270204 0.050483238 0.024971753 0.10738032 0.050325755 -0.08655649 0.1114047 -0.04576973 0.057235096 0.07734972 -0.019140823 0.10132692 0.19197264 0.13129555 0.045111887
304 -0.07244628 -0.199714 0.10038122 0.015596512 0.11687322 -0.21608232 0.052174367 -0.019665234 0.08843406 -0.017071199 0.22191183 -0.06626658 0.25790226 -0.10183463 -0.009903071 0.021900568 0.083480686 0.109672785 0.040726304 0.18900707 0.07476196 0.14408047 0.042885322 -0.064084776 -0.052290738 -0.004766525 -0.013910741 -0.052473843 0.015881274 -0.055357568 -0.03940201 0.017707888 -0.048406787 0.06555026 -0.043368384 0.013614387 0.014128316 0.13660441 -0.033685997 -0.01572753 -0.009719681 0.12169463 -0.14913669 0.08272864 -0.014637606 -0.1276295 -0.1351441 -0.017137894 0.15348269 -0.029124672 0.08662352 0.000359288 -0.109750405 -0.13354772 0.035679687 -0.07916193 0.0029187026 -0.15773281 -0.08402685 -0.1654413 0.1647773 -0.06289545 -0.08538292 0.08011582 -0.057288952 -0.25465173 -0.007312443 0.014270728 -0.012492539 0.14106041 0.059420664 -0.109972686 0.12888792 -0.156454 -0.06760916 0.101233765 -0.031330395 0.040365156 -0.045568116 0.020882571 -0.20446768 0.06160667 -0.05737245 -0.07245449 0.12443727 -0.010755878 0.074126065 0.05794271 0.0313131 0.038797855 -0.04737744 -0.018459234 0.113432445 0.15363759 -0.026976928 -0.12350838 -0.02951873 -0.13689989 0.058234442 -0.014419131 -0.023417525 0.17229217 -0.06575302 0.018544625 0.040659968 -0.04804161 0.073382586 -0.086342044 0.07313796 0.000498363 -0.109969944 -0.050671425 0.08571513 0.091655254 0.03954258 -0.014016109 0.021795547 0.14450255 -0.01839685 0.10394171 0.08427998 0.20810662 0.08708604 0.020217707 0.036119625 -0.0035458342 -0.09240617 0.046119247 -0.00820203 0.1936746 0.10850318 0.14707917 -0.05350826 -0.0048485063 -0.19323793 0.05271662 -0.093363486 -0.0545755 0.24758331 -0.006396579 0.16367805 -0.09720643 -0.049497735 0.12800111 0.19000283 0.06708984 -0.11205816 0.09001793 -0.01779918 -0.07396455 0.18459359 -0.00010678213 -0.046985652 -0.023272403 -0.03941832 -0.04650982 0.04986435 -0.026859835 0.0643431 -0.00086879736 -0.12225631 0.10618628 -0.11985719 -0.101975724 0.072480716 -0.10707172 -0.08912936 -0.054407187 -0.022676544 0.17134573 -0.13926949 -0.065202415 -0.09940498 0.117045686 -0.022421647 -0.059330385 -0.019278323 -0.050897248 0.07828448 -0.1668632 -0.23121691 0.043592297 0.0006816367 -0.06416184 0.18952505 0.00828955 0.005285252 -0.032393556 0.048519593 0.07407358 -0.12402764 0.010882719 0.06406389 -0.10323604 -0.13457249 -0.039630212 0.1947936 0.027682504 0.24203543 -0.03294502
903 0.18481651 -0.035794236 0.22197154 -0.051072598 -0.004876814 -0.105582684 -0.037709787 -0.04298621 -0.015370018 0.022886626 -0.076319814 0.088002674 -0.14074698 -0.16415174 0.06403038 0.01702904 0.059456453 0.016741576 0.15381128 0.07077585 -0.02057853 0.06389546 0.15173516 0.14920726 0.011491885 0.08041815 0.08118241 0.012966565 0.104470275 -0.10098585 0.048730623 0.17873521 1.3035924e-05 0.074746914 0.009916419 0.022929583 -0.08008079 0.08519918 0.08109571 -0.10257409 -0.02720947 0.24983887 0.070455395 0.06084719 0.013822176 -0.0011502089 -0.18558477 0.07163477 -0.0057715727 0.11167415 -0.17869864 0.092784815 -0.17130524 0.00061721733 0.17981276 0.2273825 -0.032442 0.034683194 0.093620084 -0.10269727 0.18282832 -0.08264237 -0.00844883 0.13736503 -0.0038745282 -0.047846567 -0.059930526 0.11390831 0.14926848 -0.07368082 0.17480513 0.117598794 0.088935316 -0.044627722 -0.06397145 0.15891087 -0.073582195 0.023799317 -0.17279163 0.05886455 0.04629673 0.13929643 -0.1932986 -0.1097717 0.0051307403 -0.10695805 0.047991775 0.07839302 -0.028675195 0.03827263 -0.15249042 0.02460084 0.060209345 0.15420106 0.031064626 -0.19764161 0.12232123 0.09570749 0.05435423 -0.0024565351 0.030400755 0.047894396 -0.06893869 -0.18212369 -0.0143346125 -0.005647165 0.0006889945 -0.21311691 -0.06515365 -0.049912494 0.08290312 -0.05294157 0.08896072 0.009112259 0.06045183 0.09039441 0.05377116 0.15896767 -0.00023305106 0.001626081 -0.06287385 -0.053591557 -0.24271952 -0.004995268 -0.045671765 0.09700587 0.102507606 -0.02029688 -0.067828484 0.011410988 0.10677581 0.013690026 -0.1623351 0.14269888 -0.13146102 -0.036042746 0.084710665 -0.18931086 0.072136 -0.01590555 -0.028898329 0.0014617998 0.008902419 -0.08584973 -0.055646654 0.2070223 -0.15360862 -0.084535606 -0.009160799 0.12531297 0.1516276 0.054955732 -0.011024827 -0.05678758 -0.032427534 -0.21845649 0.1518373 0.015911853 0.13158613 0.11372117 0.0042384355 -0.029501675 -0.0007446849 -0.032255612 0.12652564 0.06370055 -0.11032186 0.0023516698 0.15783477 0.027454654 -0.028361032 0.034984466 -0.06334291 0.042523842 0.0060703843 0.03514611 -0.04285852 0.044864602 0.074872956 0.114956945 -0.086947665 0.0153923975 -0.062311698 -0.05750199 0.11330868 0.13406873 0.08799876 -0.039424706 0.14538634 0.049379542 -0.228756 0.087317824 0.11886187 -0.04408184 0.0126270605 0.16013737 0.15932389 -0.022150934 0.028938029 -0.16138634
308 0.120989986 -0.10876591 0.060685776 0.10043676 0.12476398 -0.029836586 0.10199414 0.05670893 -0.02429259 0.05903327 0.11289173 0.18280979 0.015268703 0.07670301 0.044971973 0.13239892 -0.07844746 -0.18234588 0.06420805 -0.047456335 -0.1375255 -0.0680474 0.06655473 -0.016914854 0.022435015 -0.004123233 0.1251324 -0.12477876 -0.08671807 -0.06443082 -0.015640901 0.16563831 0.14647555 0.08080346 -0.19617295 0.20783548 -0.17834795 -0.02462673 -0.013370763 0.01706655 -0.028174123 0.16301872 -0.033689283 -0.050641116 0.101001136 -0.061507303 0.0077426527 0.025570538 -0.055010486 0.1713014 -0.2380529 0.15009145 0.052367143 0.20270284 0.0831518 0.061528306 0.109570555 0.112803236 -0.065736435 -0.09025902 0.10098324 -0.08657786 -0.041560333 0.088832274 0.08658587 0.023487238 -0.02166122 0.042088766 -0.02762093 -0.009758252 0.1633089 0.2083999 0.040409822 0.06864207 -0.18853688 0.021628683 -0.13991134 -0.064235054 -0.031151291 0.09307118 -0.09643622 0.13740122 -0.012871295 -0.27963427 -0.0034539595 0.02529496 0.012549098 -0.083636425 -0.00755598 -0.017375883 0.023049816 0.0063728914 0.12426542 -0.06402593 0.15288158 -0.14079489 0.05024102 0.1521586 0.15174682 0.12116863 -0.2077337 -0.00514792 -0.15600389 -0.10828791 -0.13985583 -0.050493166 -0.10819124 -0.0063115507 -0.10823093 0.09677025 -0.010405791 -0.14001976 -0.028321533 -0.0370873 -0.025169197 0.052089103 -0.071192965 0.07474402 -0.072113976 -0.24591728 0.12361367 -0.01999237 0.10600807 0.046303112 -0.11092953 0.059426084 0.033593077 0.12910478 -0.13713823 -0.02138053 -0.027481338 0.028625153 0.10494868 0.00019667154 -0.22283906 -0.001524322 0.035939492 -0.05174776 -0.005089676 -0.10717172 -0.16824542 0.02351493 0.1350045 -0.006248429 -0.006797998 -0.008627237 0.0066935616 -0.09165488 -0.009528423 -0.23482847 0.115626276 0.1399756 -0.039876975 -0.13835955 0.051249567 -0.008578106 0.10134115 0.15478018 -0.003382593 0.1011674 0.04078161 0.14804493 -0.12753387 -0.09759633 -0.16684163 0.14069384 -0.18853316 0.10780868 -0.13120878 0.18248586 0.06416273 -0.10603348 -0.103688754 0.08626695 -0.024132095 -0.050964423 0.1335612 -0.055528734 0.0475025 0.01581815 0.050968982 -0.0041520917 -0.09764589 -0.013018153 -0.07406486 0.085028216 0.064964786 -0.03884753 0.07703525 0.00055004616 -0.20522319 -0.010456531 0.013997396 -0.0956321 -0.0012609016 -0.027490031 0.11056656 0.08299928 0.07866505 0.0057233297
306 0.22647977 -0.19972546 0.16964975 0.13380384 0.02067263 -0.10720033 -0.11443461 -0.14079194 -0.099988505 0.0045696576 0.15918958 -0.16754907 -0.03027198 -0.052610025 0.09177049 -0.08309346 -0.00046332533 -0.094559945 0.1098761 -0.023692358 0.050702784 0.028050138 -0.06513627 0.03780613 0.28711215 0.027537312 -0.10306043 0.07708851 -0.11982061 -0.051425852 -0.15338218 0.041862126 -0.027533123 -0.08621396 -0.036456756 0.09200638 -0.0260866 0.0051157624 -0.020567507 0.15285558 -0.12147444 0.26391727 -0.030638829 0.055717118 0.11640875 -0.09156923 0.057223734 0.10740042 -0.026183708 0.21242672 -0.14561155 0.0018840319 0.13444194 -0.0021642554 -0.13869144 0.002067048 0.07978781 0.049230665 -0.048691597 -0.0037166467 0.0071125533 0.078736864 0.097397365 0.20469277 -0.006749438 -0.067725144 -0.094442576 -0.058451 -0.024264885 -0.081340656 0.03325885 -0.0718858 -0.1586996 -0.13956897 -0.0206663 -0.031465158 -0.09666752 -0.018842364 -0.23990846 -0.04427793 -0.24234213 0.15024513 0.006414808 0.027149094 0.122260645 0.24834827 0.08445349 0.2687277 0.018693924 0.045446157 0.0006384686 -0.016410494 0.03938248 -0.027303444 0.03670244 -0.057251025 0.026178027 0.026541496 -0.065597825 0.1582128 -0.063694015 0.017118009 -0.07454174 -0.0130615635 -0.00922139 -0.122527674 0.03237543 -0.26999408 -0.011627844 0.20947617 0.2044077 -0.091936916 -0.095716916 -0.08256463 0.16891837 0.048265122 0.24715601 0.040845737 -0.044499338 0.10095925 -0.038444232 -0.012626282 -0.005503139 0.06863703 -0.09752938 0.10188199 0.026507 0.07767674 0.000754023 0.08042947 0.14712997 -0.17773736 0.016865965 0.09727795 -0.0034718113 0.10258735 0.1140908 0.093699254 0.15743767 -0.050976682 0.05404679 0.13247971 -0.08536174 -0.02000777 -0.24071534 -0.1268166 -0.06718116 -0.095871605 0.097884715 -0.14229348 0.11253702 0.044257883 0.085422695 -0.020552685 0.054100152 -0.11094841 0.094611876 0.09973419 0.04165873 0.040212087 -0.021556744 0.10848727 0.039005086 0.071389265 0.10522215 0.13822527 -0.26097876 0.020089991 0.14538042 -0.02093227 0.07307528 0.048853505 -0.04952711 0.14436659 -0.04091405 -0.031024234 -0.047299154 0.038992595 -0.00861537 -0.15607136 -0.005867803 -0.030684564 -0.1235404 -0.013087192 0.16601583 0.1161692 -0.011762201 -0.16424653 0.046449363 -0.04307287 0.07078817 0.024599506 0.023643807 -0.07397163 -0.11980446 0.055335436 0.06903528 0.0064906706 0.082765624 0.05002792
934 -0.113651976 0.092732586 0.18668222 0.0050881105 0.099976934 -0.018134743 -0.109966025 -0.23505309 -0.008744975 -0.1557343 0.067530796 0.049439065 -0.036578927 -0.015602333 -0.024148474 -0.16830444 -0.055492487 0.025672177 0.014117495 -0.023901047 -0.040720053 0.07388936 0.019595083 -0.038405668 0.12026992 -0.06069052 -0.055781804 0.05581216 -0.1847069 0.12370483 -0.14140454 0.08367688 -0.06460404 0.02476369 -0.117572196 0.15741818 -0.01846766 -0.03627429 -0.12319434 0.27929774 -0.034369644 0.1865655 -0.03601466 0.008694626 0.0076309117 -0.05773934 -0.17054833 0.030549854 0.031151269 -0.056537874 -0.21194822 0.18814087 0.066951826 0.016985612 0.0076788324 -0.0042876326 -0.055034075 0.07119328 -0.020095829 0.05591871 0.0544157 0.11129347 -0.108294144 0.2077888 -0.13104723 -0.033668116 0.010439265 -0.036829792 -0.040325623 0.069824025 0.010792031 -0.02673636 -0.21172325 -0.12511533 -0.10397156 0.11987252 -0.2725589 -0.056881398 -0.048736926 0.1578038 0.07921906 0.10988117 -0.150217 -0.011903083 0.062849164 0.13100657 0.11339044 -0.017025702 0.031023521 -0.029353062 0.057624493 0.023455728 0.0864966 -0.08926598 -0.07941533 -0.242563 -0.13268568 0.039496124 -0.014486264 0.19844757 -0.10098815 0.11930924 -0.10382741 0.074862055 -0.13970123 -0.083414346 0.26349577 -0.10753223 -0.17359152 -0.033558473 0.0023630178 -0.013397678 0.031806525 0.0073309788 0.008070128 -0.079104245 0.034444988 -0.09410359 0.06157861 0.018199306 -0.12195785 -0.060077548 -0.15416335 0.070382066 0.050871544 0.10292957 -0.0026259613 0.06525865 -0.14815776 0.08451286 -0.025984053 -0.15834816 0.004162547 -0.017462548 -0.21706238 0.17725341 0.230546 -0.07000206 0.03371136 -0.2156739 -0.09721644 0.099661894 0.022615412 -0.09138974 0.008793168 0.057832316 -0.002457824 -0.03398509 0.052570608 -0.13714005 0.053028673 0.09632734 0.091272905 -0.07654694 0.023575125 0.18504792 0.0022158565 0.20063254 -0.104310766 0.018645208 -0.08984015 0.15801099 -0.13156995 0.13873167 0.10264744 0.12284777 0.021643914 0.1158518 -0.092477664 0.09591633 0.25794104 0.10466217 -0.11342942 -0.02778406 0.07167859 -0.0016690935 0.071526 -0.021433957 0.024849618 -0.2863607 -0.15601154 0.23613359 0.040042676 -0.041617397 0.11616646 0.08065065 -0.053776056 0.040766668 0.08607017 -0.024907518 -0.049907308 0.07422443 0.20982483 -0.19829649 0.0055974484 0.17162034 0.15599972 -0.018542899 0.03639137 0.14959958
651 0.062495213 -0.14625491 0.16853748 0.08657417 0.056898836 -0.12085805 -0.027689168 0.007240502 0.06826505 -0.10667955 0.016648164 -0.04416706 -0.01101682 0.10275875 -0.132077 -0.005789586 -0.10268276 -0.096729524 -0.07596121 -0.00638751 0.107489206 -0.08417333 -0.13034853 -0.08621009 0.15376419 -0.116331615 -0.13535953 -0.03970508 -0.07651842 -0.06218795 -0.14534251 -0.02825577 0.11040438 0.0070652845 0.024694635 0.024669165 -0.081120215 -0.03084841 -0.033394143 0.075188674 -0.09620626 0.1131122 -0.10324455 0.107062966 0.20587742 -0.18655251 -0.24330021 0.007625649 0.13812897 0.083789915 -0.068180785 0.08946725 0.0069456683 -0.083404794 0.15934357 -0.1782158 -0.065770015 0.10342933 -0.041814476 -0.0038087294 0.04717708 0.08102158 0.060028154 0.20908327 -0.0051480476 0.075635515 -0.021384578 -0.014310119 0.028458554 0.11644014 0.15216595 0.050613683 -0.07601908 -0.20816052 -0.12694757 -0.08439517 -0.14810513 -0.09486652 -0.20138857 0.10937357 -0.13288473 -0.07122965 -0.09774307 -0.19079766 0.21477455 0.11132092 -0.074197754 0.12822653 0.056168504 0.04510655 0.08967409 0.1309635 0.15294407 -0.05054039 -0.061635338 -0.085465066 -0.1445109 0.047294486 -0.030941565 0.14374727 0.07509053 0.06674579 -0.19403046 0.13214439 -0.090419024 -0.060705982 0.112871066 -0.14889807 -0.06870601 0.13069797 0.06967096 -0.16904524 -0.17526032 -0.2627603 0.015388155 0.019798404 0.085841544 -0.010468238 0.04520248 -0.086244315 0.022704903 0.19633 -0.19385494 0.15608159 -0.02594047 -0.017246613 0.004649842 0.031172013 0.06396287 0.021043364 0.08981391 0.040667273 -0.07255074 0.115472496 0.0130892685 0.12861402 0.052163087 -0.04334704 0.12875576 -0.28735775 -0.011363234 -0.019840334 0.10933794 0.14450452 0.17032728 0.12501085 0.0886899 -0.101033926 0.074669875 -0.12819307 0.035381194 0.061476395 -0.04394384 0.0015132426 0.13713723 -0.14531155 0.19950682 0.05355064 0.09256204 0.06085412 -0.02561004 0.15245068 0.048730593 0.07356247 -0.042193454 0.09340202 -0.15616713 -0.06265967 0.07973043 0.13722895 0.11547708 0.06105004 0.040763926 0.14008573 0.042006474 -0.17385936 0.16292062 -0.05909525 0.073396586 -0.043530006 0.0455039 0.037636157 0.012657342 0.089316696 0.068764225 0.083285734 -0.0063109975 -0.12912358 0.023270544 -0.039426804 -0.1492021 -0.06604811 0.046735834 0.0069706407 0.07559194 0.15033653 -0.07644635 0.039320093 0.013891085 0.21599984
21 -0.05729122 0.08928269 0.13071753 0.018297773 -0.06059842 0.06025605 -0.01438817 -0.094170496 0.003952883 0.18476322 -0.09245177 -0.024782915 -0.12597667 0.15802719 -0.0759893 0.061822742 0.0041295886 -0.1394213 0.081143826 0.2740385 -0.08344348 0.0071377293 -0.014906158 -0.043889944 0.12281031 0.15740445 0.047315523 -0.062393058 0.18077691 0.13484932 -0.051775295 0.06081247 -0.03341762 0.036132775 -0.1904127 0.07130738 -0.28614792 0.21367922 0.06678947 -0.18765052 -0.06879672 0.20934258 0.0070494856 0.048111666 -0.06890439 -0.0461416 -0.031236231 0.021485206 0.0822098 0.10402596 -0.2127841 0.09271779 -0.13926193 -0.11065466 0.1490753 0.009710197 0.047877666 -0.084196165 -0.13342188 -0.03803976 0.13145839 0.026017584 0.12105347 0.17880291 0.0794552 0.034063756 0.074532636 0.030175867 0.07222117 -0.23708443 0.0032186138 -0.031553306 -0.009830084 0.09649936 -0.23627907 0.21694049 -0.10501859 0.1366992 -0.110805735 0.1689423 -0.2052179 0.14950722 -0.04702329 -0.09145625 0.13057636 -0.04844422 0.13783157 0.18373734 -0.0129318 -0.073652185 -0.0043163914 0.15549752 0.17256987 -0.109242015 -0.072705775 -0.04927855 -0.013560203 -0.18700743 0.27775368 -0.008671472 0.046061788 -0.036979936 -0.2855078 0.026908586 -0.03199834 -0.040611286 -0.021963993 -0.25812984 -0.11924253 0.03894585 -0.10126533 0.08769462 -0.0029473985 -0.01623454 0.103380814 -0.08080104 0.1763288 -0.002805041 0.05507873 0.08869492 -0.016886266 -0.0680717 0.017285695 0.0895338 -0.026911078 -0.025656885 -0.089494474 0.025534788 -0.16857395 -0.035185225 -0.119465455 -0.02705892 0.14503235 0.025503565 -0.21199283 0.115291096 0.055702925 -0.09186946 0.025713617 -0.06252005 -0.023132661 0.004618546 0.033072673 -0.015023066 0.056043983 -0.014800506 -0.008672711 -0.085312866 -0.01770468 -0.06551489 0.004988232 0.22459522 -0.03895587 0.13153064 -0.0038196759 -0.07883091 -0.038797703 0.0712765 -0.15363297 -0.03588266 -0.0426686 0.014496174 0.06461645 -0.060976025 0.13039249 -0.109308034 -0.20394045 -0.13062936 0.11397726 0.09597646 -0.11254666 0.054623593 0.14803804 -0.2016448 0.05116279 0.0706735 -0.067696236 0.25519028 0.14829388 0.037471358 -0.0735214 0.2512175 -0.083186954 -0.04575172 0.027583428 0.17017372 -0.02841667 0.14122142 0.108635 0.0033175133 -0.24110062 -0.13250907 0.1736326 -0.006324129 -0.08231235 -0.0071009477 0.19348794 -0.089990914 -0.07385982 -0.02628822
1116 -0.040152326 -0.27007288 0.2640827 0.09673169 0.086416095 0.052728675 -0.025744477 -0.16049555 -0.13613594 0.13649367 0.14224216 -0.08182506 0.060357913 0.04573235 -0.1116407 -0.10861392 -0.11306488 -0.048645012 0.050790988 0.05304799 -0.12344987 -0.027227575 -0.03010549 0.11540769 0.091630675 0.14864343 0.07220775 0.048262775 0.014030333 0.08501402 -0.1477237 0.10808329 0.062314596 -0.03485794 -0.05331725 -0.03351483 0.021373443 0.05536212 -0.20964535 -0.06855525 0.1153398 0.113075696 -0.16990706 0.17924127 -0.12336675 0.03850619 -0.22855465 0.25854057 0.0017833285 0.23504433 -0.122580424 0.1175576 0.048870347 0.013887281 0.07220839 -0.13511537 0.07321985 -0.07389198 -0.0837234 -0.15859513 0.0664817 -0.072495855 0.091117695 0.14264157 0.05638969 0.096809156 -0.15994294 0.12616576 0.040830135 -0.20626709 -0.040933684 0.08742609 -0.13865116 0.0039374516 -0.098391056 0.09072485 -0.1297127 0.009351557 -0.19858186 0.0531628 -0.08295397 0.03865631 0.08982267 -0.084500685 0.14615393 0.10780262 0.077021524 0.08048425 -0.0463207 -0.067006 -0.13938364 -0.14211488 -0.0056820125 0.03462088 -0.112490304 -0.027396716 -0.13255152 0.1112704 0.14548808 0.1795095 0.18938439 0.105151415 -0.07803596 -0.032871746 0.0013604285 0.07492639 0.083468586 -0.04308008 0.11378585 -0.047101233 0.038546145 -0.16282767 -0.051008437 -0.18904027 -0.0270875 0.14228828 0.0811949 -0.10255166 -0.019789333 -0.022508854 0.17213526 0.08577117 0.062393352 -0.08546654 0.11005783 0.08970296 -0.038555447 0.03814916 -0.0014367911 -0.004572277 0.10640415 0.11913101 0.10391923 -0.014606568 -0.0694252 0.13808452 -0.021124408 0.10220285 0.031364754 -0.22516307 0.08500603 0.043436807 -0.09336139 -0.064677596 -0.05290455 -0.006066756 -0.008269216 0.026362231 0.08759783 -0.038277514 0.15948887 -0.049004573 -0.0073970566 0.07325842 -0.16214232 -0.116970666 0.007607408 0.028476687 0.15510587 -0.15292278 -0.100670196 0.28267583 -0.15098669 0.009683517 0.07379844 -0.11466252 -0.13521588 0.15559077 0.11394092 0.20227316 -0.08357376 -0.03977993 0.004228502 0.056872133 0.058398657 0.11923021 -0.027094217 0.025846755 0.050460994 -0.17397302 -0.1433803 -0.075314574 -0.13436307 0.0046451846 0.088706486 0.1393295 -0.011104161 -0.09134258 -0.020748451 0.059235945 -0.093588665 0.024885274 -0.07470584 -0.15003137 -0.065330654 -0.029243233 0.124081306 0.18914063 0.18813106 0.27700582
196 0.06771096 -0.10027003 -0.0039495863 -0.009622616 -0.06612357 -0.050659083 -0.04987548 -0.03193275 0.08209354 -0.1199574 0.031183613 0.01934322 0.076226525 -0.17581153 0.07038523 -0.05704527 -0.09057271 -0.07577755 -0.055972524 0.1225084 -0.08278587 0.06980653 -0.023140827 -0.019844238 0.025490995 -0.23224469 0.101371504 -0.12185994 0.05705231 -0.108576834 -0.035993915 0.036285907 0.09453959 0.08438592 0.0057290317 0.11954203 0.056244142 0.053375576 -0.14544533 0.08508699 0.031085735 0.238267 -0.0624043 -0.13147888 0.12409367 -0.20035927 -0.03483412 -0.041113995 0.17647699 0.06643521 -0.21079323 0.012057376 -0.16468714 0.054044895 0.08204331 -0.07482223 -0.16073605 0.07815141 -0.052643795 -0.022766648 0.23258692 -0.09281209 0.013342126 0.20694654 -0.07907816 -0.09623417 -0.037497927 0.06555067 0.12916079 -0.09303532 0.015185543 -0.09276154 0.015644282 -0.075418584 -0.17741308 0.031069068 -0.17403693 -0.018828664 -0.04511409 -0.020349957 -0.05034725 -0.031338867 -0.08104333 -0.10319979 0.114068836 0.059274167 -0.06324439 0.14074005 0.03595909 0.12019502 0.0014352951 -0.031146271 0.2232292 -0.030634418 0.115745746 -0.07913468 0.07476032 0.026526859 -0.048161767 0.12639762 -0.104922295 0.06327003 0.10849881 0.05606486 -0.067036115 -0.1046182 -0.086618006 -0.015741142 -0.17227367 0.14894399 0.10304208 -0.1343505 -0.0022322536 -0.11522008 0.12229489 0.18384479 0.022789974 -0.038022358 0.0033064643 -0.121630065 0.08643589 0.09069635 -0.10911459 0.16929774 0.00655696 -0.0044494555 -0.110724576 0.07586699 0.05422115 0.045131482 -0.06965144 -0.023065971 0.02904834 0.2011751 -0.12132574 -0.02681937 0.005156999 -0.1381173 0.12107416 -0.2826395 -0.22692458 0.06942831 -0.02920486 0.0028069713 0.021442462 -0.016745148 -0.14676629 0.0012004452 0.08013277 -0.14482574 0.07470679 0.046562932 0.21593107 -0.17755012 0.17265008 -0.029217683 0.015044302 0.02069277 -0.11442386 0.058105554 -0.06407058 0.1600425 0.0419249 0.091809906 -0.0006216839 0.24227183 -0.077324875 0.11200466 0.12953006 0.13300152 0.22203967 0.14698523 -0.06366076 -0.004134951 0.046570037 0.021477493 0.19007342 -0.005999511 0.033279587 -0.074030764 0.09938898 0.107570514 -0.12312111 0.0106844315 0.08347263 0.098204285 0.17903788 -0.025152514 -0.08886226 -0.110094175 0.058470767 0.03585981 0.082271114 -0.16738482 0.015639376 0.093215935 -0.053132195 0.019943556 0.09899362 0.19771034
905 0.035802286 0.020992817 -0.03867649 -0.005538754 0.07174781 -0.1857323 -0.03212115 -0.29203692 -0.088935845 0.09536744 0.15676914 0.11915084 -0.02209973 -0.06333021 -0.0722694 -0.09047652 -0.003773401 -0.16097651 0.024316665 -0.036983214 -0.12282106 0.040552296 0.09937853 0.10985818 -0.049780626 -0.04766711 0.05682499 -0.0596996 0.04350546 -0.11393333 -0.060602695 -0.04663003 -0.016469153 0.09910148 -0.1242299 -0.13087557 -0.07313936 0.07157569 0.04648085 0.12188602 0.12554087 0.1282828 -0.15995164 0.113604516 0.1813765 -0.02480552 -0.16234387 -0.113369785 0.015124186 -0.052917663 0.0029007923 0.22530675 -0.022794751 -0.102524675 0.09495899 0.30742335 0.006814225 -0.006080523 -0.22281216 0.0056700767 0.17664312 -0.106975235 -0.2129576 0.06980365 -0.077764444 -0.26586813 0.031588938 -0.12331032 -0.1471627 -0.06622255 -0.02581113 -0.14042309 0.0009972333 -0.23598596 -0.08802717 0.05909671 0.0047305035 0.026936427 0.00613655 0.15373023 0.02775212 0.13623476 -0.13347381 -0.19612016 0.111646116 0.11055622 -0.25508127 -0.07588198 -0.06674767 0.11136165 0.04015652 0.052568913 0.05120053 0.03893947 -0.0737123 -0.25857952 0.028839836 0.0783767 -0.0340751 0.059512604 -0.04971829 0.14733794 -0.18476006 -0.061972603 0.024917996 0.0722649 0.06404847 -0.08038927 -0.17919998 -0.054550786 0.05437848 -0.020657307 0.02222328 -0.109141566 0.15555224 -0.007346855 0.08505015 -0.00018636748 0.15143687 0.027650243 0.060260523 0.059163567 -0.22151704 0.054856848 0.11500753 0.013325966 -0.11272549 0.18762001 -0.0819869 0.07848124 -0.05546905 -0.051425025 -0.042924486 -0.20790981 0.0746972 0.1088258 0.0050737266 -0.08848146 0.16545126 0.15645261 0.15940668 0.02020091 -0.09841757 -0.039314028 0.043265097 0.055565916 0.08222158 0.034437474 0.103704385 -0.0872175 0.118259445 0.07648953 0.008734406 -0.058916055 -0.02073366 -0.10013837 -0.07987849 -0.08230315 0.0912016 -0.0055559697 -0.08514127 0.09060037 -0.17969246 -0.17572474 0.13436985 -0.10571113 -0.085950114 -0.07346841 -0.11047284 0.07127988 -0.08506733 0.081907466 -0.20071101 0.043024454 0.081806585 0.06349752 0.05826448 0.05191318 0.033235975 -0.13216326 0.03535997 0.066557646 0.07770185 0.062166356 0.19161187 0.0951778 -0.055159345 0.049159408 -0.040368665 0.016419964 -0.057155777 -0.11967623 0.018407278 -0.022251396 -0.2722813 0.14934814 0.18227756 -0.015252229 0.051506966 -0.122127205
54 0.0066818385 -0.14238995 0.10095932 0.12571453 -0.0018508221 0.05124479 0.075843774 -0.2099192 0.0656517 0.14961232 0.03394323 0.05485356 -0.03998163 0.041107763 0.04829462 0.040981907 -0.091698684 -0.099698365 0.08861966 0.22179581 -0.10784771 0.04838779 0.081147455 0.060478076 -0.053188074 0.026744958 0.094968885 -0.1346309 0.031096512 -0.16237172 -0.18969017 0.009532694 0.04243074 -0.07390449 -0.0016482029 0.08357675 0.026205048 0.10498094 -0.0233676 -0.13830808 -0.033258848 0.036232773 -0.0954056 0.038292218 0.054237366 -0.05065005 0.031102479 0.09633481 -0.13337526 0.080501504 -0.18709181 0.13398337 0.07257426 0.002137953 0.14054482 0.012858844 -0.09580904 0.060169175 -0.049210504 -0.22683936 0.11924164 -0.054885715 0.11863746 0.30826694 0.052361596 -0.07291373 -0.0018617423 -0.08130506 0.2066993 -0.17486134 0.044801246 0.11525039 -0.10103974 0.014630745 -0.214793 0.093812905 0.040338926 0.03167857 -0.0075332653 0.028579302 -0.14755823 -0.020596338 0.0025419872 -0.031236008 0.15313056 0.076211795 0.12458203 0.11183001 -0.044544958 -0.023986954 0.07235127 -0.087014176 0.13624296 -0.061996058 -0.029362725 0.25328463 0.044270374 0.038341284 0.11872225 -0.101806805 0.002452694 0.042178687 -0.109166525 0.1842126 0.06365451 -0.041015476 -0.03368651 -0.083806 -0.13333482 0.047380358 0.14236996 0.00448284 0.026145207 -0.05032323 0.03333451 -0.07438762 0.1331989 0.2000284 -0.09652512 -0.0006191506 -0.08899648 -0.09345523 -0.12334298 0.15175283 -0.10279874 0.037558775 -0.0818666 0.26298532 -0.16107386 -0.10342861 -0.047804095 -0.036576934 -0.038462065 0.0024307095 -0.09325563 0.0008760177 0.05886677 0.10752921 -0.0018204023 -0.33895865 0.09967951 0.028934415 -0.053025994 -0.020048095 0.0932587 -0.031941026 -0.03480077 0.04879326 0.027742561 0.06721772 0.07099852 0.24280155 0.0684499 0.08187498 -0.012468241 -0.20938498 -0.21544665 0.0958872 0.022071246 -0.07624811 -0.09186644 -0.11230063 0.01479751 -0.06547427 0.06291778 -0.11542145 -0.30705047 0.10700242 -0.044726856 0.22108403 -0.050850343 0.13352995 -0.0014912728 0.021156332 0.0072418456 0.04393874 -0.03196207 0.09651151 -0.020155337 0.028284457 -0.113284975 0.18172766 -0.07409194 0.011447051 0.04882832 0.11780536 0.07895908 0.14374444 0.14395863 -0.09936818 -0.11947429 0.09897226 0.070737995 0.1191275 -0.002279847 -0.06522892 0.18876901 0.0049416763 -0.00948933 0.018534403
387 0.0492988 -0.12635757 0.15304221 -0.0192495 0.018570911 -0.014143933 0.14152983 -0.15363464 0.0038005107 -0.0008335734 0.2008203 -0.084555194 0.09569338 0.10005306 -0.016125679 -0.0045164395 0.035858773 -0.10466947 -0.086552374 -0.012958715 -0.0559925 0.03799146 -0.04044087 0.09447883 0.03456652 0.20695612 0.14776753 0.032217614 -0.02298187 0.01437019 -0.14028284 -0.09480518 0.21093953 -0.00073265366 -0.15269864 0.105527855 -0.1537175 0.024482854 0.122747935 0.15132365 0.04536025 0.10874989 -0.029936258 0.15978704 -0.036830507 0.03695401 -0.2566775 0.2371246 -0.023448467 0.15910788 -0.14046529 0.0053404933 0.11516496 0.0824787 0.1662764 0.024366327 0.27075675 0.0003414383 -0.17147519 0.073895805 -0.033158865 -0.13039681 0.07608301 0.09118556 -0.053601634 0.096715026 -0.17943862 0.0019675745 0.062318586 -0.036962714 0.046523355 0.07131291 -0.09564644 -0.08665557 0.110117406 0.045169156 -0.14682007 -0.050593197 -0.2862525 0.062761456 -0.14492568 0.11754429 -0.08263322 -0.22006525 0.06697048 0.013329117 0.13919334 0.07922604 0.055621624 0.03135736 -0.046253562 -0.058566716 -0.060296614 -0.04693474 -0.044770434 -0.06548833 -0.09817667 0.07450509 -0.01510764 -0.016075943 0.090490416 0.24087314 0.14751576 -0.04690268 0.012613037 -0.022519466 -0.011622891 -0.08643945 -0.17457528 0.09298282 0.059106845 0.12916811 0.06752583 0.0012673758 0.13888696 0.09783416 0.17225645 0.025344715 0.057397563 0.010615669 0.25451064 0.16697799 -0.09395679 0.00033368135 -0.18388377 0.014004534 0.07898259 0.18973462 -0.00997588 0.12436888 0.032123085 -0.051009823 -0.048040856 0.05916309 0.007253113 -0.068179466 0.12685348 -0.098312624 0.27548885 -0.15221426 0.014389906 0.14070345 -0.20223473 0.016417038 0.10544233 0.07195668 -0.12898004 0.039578512 0.03196714 -0.006464654 0.08432059 0.019130861 0.069595166 0.01571909 -0.05037357 -0.24414931 -0.00023287158 0.0989861 -0.00053772645 -0.21430555 0.019339412 0.43742147 -4.4368415e-05 -0.013957488 0.064272694 0.124242894 -0.030492742 -0.044082884 0.005657333 -0.0027528612 0.041626595 -0.013600602 0.033230644 0.066199005 0.11377502 -0.1321802 -0.04090773 0.05573394 0.16958536 0.029625406 -0.09535161 0.01608913 -0.26466516 -0.0007363858 0.113569416 0.10964104 0.030957777 -0.04870625 0.017028028 0.0075981026 -0.19154373 -0.08223122 -0.02471662 -0.20346259 0.051506877 -0.028012434 0.036230855 -0.100444086 0.17027332 0.14966221
1088 0.02850713 -0.09989177 0.290012 -0.019423284 0.09573676 -0.2246331 0.001569228 0.10165269 0.13000931 -0.08489998 0.041807916 0.2654548 -0.017902452 -0.07221822 -0.120758384 -0.101698644 0.012148529 0.049921762 0.029529283 0.20929457 0.033852827 0.01863396 0.31594872 -0.07929717 -0.03690128 0.01789325 0.12885284 -0.06847425 0.068163805 -0.12508121 0.036847424 -0.09870454 -0.06476777 -0.043130305 -0.110785335 0.033734098 -0.03084405 -0.034604345 0.13281018 0.05021151 -0.18446411 0.25599095 -0.050764125 0.110919274 0.06218942 -0.17552097 -0.04460145 -0.05421647 -0.05020344 -0.022970708 -0.08136148 0.04094784 -0.030760298 0.021762976 -0.029906671 0.03417914 0.09799652 0.123579465 -0.13661905 -0.1224326 0.12989283 0.07693331 0.057952352 0.22376204 -0.043715745 -0.19520609 0.026731152 0.121298574 -0.108343035 -0.05598689 0.17547604 0.14559689 -0.07240317 -0.07568607 -0.025059039 0.06381778 -0.12103388 -0.065293826 0.117503315 0.012903131 -0.12221378 0.049539704 -0.15912597 -0.17910533 0.037380528 0.08544637 -0.106750324 0.06791434 -0.019953538 -0.1362064 -0.044401553 0.09942404 0.00764364 0.2852655 -0.05922908 -0.32562557 0.012840774 0.18104658 0.06005484 0.08435256 0.040852256 0.016866505 -0.052131984 -0.048500713 -0.00079211406 -0.103192575 -0.007094779 -0.11013927 -0.033193264 0.12509377 0.09680355 0.10186449 0.015522688 -0.08626464 -0.05030927 -0.037925053 -0.049243845 -0.020154687 0.07683524 -0.027654165 0.08453947 0.17380284 -0.18903998 0.093344755 0.032835472 0.037985854 0.052783728 0.027633844 -0.2973535 -0.0799071 0.04524563 -0.13629575 0.015263794 -0.004073239 -0.060769446 0.19854212 0.005367502 -0.011011164 -0.12488996 -0.037207477 -0.095896885 0.07521253 -0.06352296 0.016851813 -0.17181548 0.04643457 0.07942829 0.07044386 0.08104093 -0.0017827267 0.06303893 0.12898786 0.08275691 -0.09840149 -0.08915962 -0.1886492 -0.027735855 -0.040786654 -0.120348416 0.060291927 0.020570027 0.085911706 -0.122630015 0.037246104 0.23368877 0.086403444 0.06999987 0.07845924 -0.14523509 -0.050650798 -0.03897978 -0.05037966 -0.26218203 0.16155143 -0.003603544 0.005742763 0.15939608 0.020654416 -0.029562233 0.1017972 0.035833232 0.062953494 0.046659503 -0.03936922 0.2304833 0.12952657 -0.03615259 -0.025234045 0.064010575 -0.05990277 0.02538946 -0.1724755 0.06474007 0.07187745 0.049020424 0.010122877 0.12977406 0.07631001 0.16540515 -0.22449183
238 0.052918613 -0.30817443 0.17933778 0.04602773 -0.024504974 -0.07141676 0.14227834 -0.15896161 -0.010679285 -0.051914718 0.12005429 -0.11785008 0.07169281 0.10930779 0.089673266 -0.02438178 0.119434185 -0.03792504 -0.2419146 -0.07601441 -0.060055442 0.02470076 -0.03049394 0.15653482 0.14925842 0.1594358 0.0014331867 0.059505682 -0.13714439 -0.16055977 -0.08927479 -0.009524838 0.13249423 -0.019899765 -0.22116263 0.05935787 -0.07670549 -0.015935494 -0.015342833 0.17073883 -0.040203944 0.22850415 -0.10182636 0.033394415 -0.043266445 0.035602406 -0.2136001 0.15251063 0.01181879 0.1123141 -0.08328821 0.08292611 0.09525518 0.030450717 0.05460338 -0.07925627 0.040251285 0.0018557915 -0.15910587 0.046422154 0.013620582 -0.05511967 -0.016031777 0.21486647 -0.14104596 -0.003992141 -0.079835944 -0.119576626 -0.025174849 0.033233084 -0.0119761 -0.062807895 -0.03001694 0.023479266 0.046295162 -0.06878122 -0.039380353 -0.011151315 -0.1446813 -0.03869137 -0.11192945 0.053305224 -0.20132475 -0.23301595 0.13859601 0.25232962 0.120823085 0.008137309 0.14068773 0.106022924 0.13240625 -0.04813224 -0.05204209 -0.05998409 0.0047304574 -0.04876534 -0.07897352 0.18239008 -0.06745051 -0.04241938 0.10053306 0.07232444 0.08841692 -0.046657413 -0.08523935 -0.055584043 -0.14259957 -0.09137952 -0.3197284 0.09409321 0.049370002 -0.026353113 0.066143095 -0.044029824 0.21155196 0.12056619 0.22871783 -0.035657916 -0.057585612 0.050394382 0.21961032 0.0770548 -0.11465846 0.040756565 -0.05030554 0.12528898 -0.043713238 0.10496694 0.022633452 0.0398268 -0.04813302 0.031019194 -0.013031011 0.06109318 -0.0317584 -0.07619409 0.0631123 -0.03370796 0.20221187 -0.054679286 -0.019359576 0.28250325 -0.1923756 0.18016091 0.13939019 0.030091971 -0.048477218 0.012401124 0.108860604 -0.14462313 -0.0012638742 0.075065345 0.116101526 -0.074864015 -0.13671175 -0.24170455 0.0035077045 0.10733317 0.019039206 -0.18043807 0.017480768 0.2902143 0.11276049 -0.054249953 0.12889971 0.11504634 -0.15836594 -0.038649738 -0.010019098 0.10235157 0.08028476 0.038507003 -0.029071158 -0.023103023 -0.0044216085 -0.057396192 -0.18612419 -0.011381166 -0.0232127 0.088980965 -0.18598334 -0.025394449 -0.1397812 0.07678564 0.1800126 0.12782116 0.11127576 -0.09297091 -0.06209375 -0.062194753 -0.19422601 -0.11516155 -0.06811624 0.020715617 0.027706062 0.013274378 -0.07948499 0.010131135 0.1420838 0.14654188
476 0.12537917 -0.21698546 0.020599715 0.11323826 0.091222696 -0.057215404 0.13928552 0.10687809 0.030942934 0.1486981 0.15774961 0.063099004 0.09544625 0.098886356 0.081141695 0.107827894 -0.118002355 -0.049512297 0.16804191 -0.054299988 -0.23996593 -0.100629956 0.08068976 0.031430453 0.012699044 -0.057716753 -0.05113905 -0.043566376 -0.0053629554 -0.09114039 -0.075550325 0.04570834 0.17628624 0.15766525 -0.11446945 0.075110085 -0.2197692 0.050321367 -0.020915441 0.086681366 0.036613718 0.22551869 -0.023737065 0.020735107 0.10056747 -0.018895179 0.101323016 0.048725553 0.055580717 0.131349 -0.24102208 0.07460254 0.066244565 0.19968915 0.05171974 0.092208035 -0.021158924 0.11202908 0.022999395 -0.15939076 0.1406132 -0.01085348 0.03044365 0.07857822 0.05009899 0.06358466 -0.021734511 0.1983297 -0.08609453 0.013593854 0.19305903 0.231026 0.04830737 0.06657732 -0.14144461 0.007680156 -0.1984204 -0.060460124 -0.060977906 0.032032005 -0.13586734 0.17819889 0.034422882 -0.21395865 -0.012784017 -0.021310112 -0.0011188576 0.0132571785 -0.13889764 0.0036613743 -0.10721654 0.04983135 0.022934426 -0.03559876 0.1747874 -0.1768484 0.12712242 0.056460068 0.19360957 0.16343157 -0.19900133 -0.038956065 -0.22623792 0.030242795 -0.1711646 -0.082690984 -0.19863409 -0.03443411 -0.20609222 0.0842573 -0.03451226 -0.108489774 0.07633336 -0.051601976 0.0066245524 0.0065976107 -0.1254098 0.07350001 -0.03857644 -0.21360634 0.18540461 0.022991516 0.054976903 0.120496474 -0.10640427 0.13547234 -0.022954518 0.23856607 -0.04399697 0.015010596 -0.0889905 -0.0045116246 0.08770234 -0.110715374 -0.11806795 0.030914003 -0.0044272514 -0.18873276 0.061585482 -0.014613365 -0.031793803 0.13194242 0.16817492 0.027576748 0.0013410635 -0.010576352 0.08186044 -0.15949714 0.015440892 -0.14672308 0.09142974 0.1528898 0.0846505 -0.058523826 0.06948917 -0.010500655 0.07931407 0.14517358 -0.1332479 0.053070433 0.053140584 0.14145334 -0.015178567 -0.118643664 -0.03174717 0.14387622 -0.15355831 0.07505949 -0.043895267 0.16538262 0.057625726 0.122212976 -0.13988218 0.061644744 0.059946764 -0.010180009 0.09690273 -0.06271326 -0.011173021 -0.015886266 0.0359218 0.06967705 -0.041621175 -0.0017968077 0.07902355 0.011808949 0.099547654 -0.06352044 -0.058789093 0.12587215 -0.30352655 -0.06516567 0.055172935 -0.08125966 0.016616205 -0.050302684 0.16629215 0.0654294 -0.16443579 0.038475763
732 0.09716377 -0.18387513 0.21549568 0.062106606 0.21390809 -0.17669846 0.14964867 0.093534976 0.060296047 0.0736979 -0.040980347 -0.11808227 0.2561931 0.00011114439 -0.0685559 -0.23562075 0.027331842 -0.041084323 -0.1173299 0.028544875 0.082778916 0.051078252 -0.040283993 -0.14509355 -0.030960994 0.20626439 -0.11240935 -0.08202114 0.0001404384 0.015098786 -0.028202202 0.05406085 -0.12229322 0.13955584 0.055616528 0.09031738 -0.0060937116 -0.009011854 0.13464186 -0.049081065 0.19884433 0.123662025 -0.20212378 -0.09114096 0.00649777 -0.10049543 -0.10865703 0.06571078 0.22472139 0.14260416 -0.12732139 0.18703885 -0.011004119 0.04715574 0.14777726 -0.11906491 -0.04366932 0.008199489 -0.034064602 -0.06669951 0.0599495 0.0010889579 0.035174247 0.17159805 -0.034684446 -0.10165662 0.009277613 -0.09811009 -0.0164061 -0.09245126 -0.024409471 -0.0005546642 -0.055918716 0.071409784 0.011076568 0.12201806 -0.046675317 -0.045768663 -0.1829447 0.1119969 -0.11809961 0.102798246 -0.17872399 -0.18901208 -0.001284473 0.10827952 0.17595717 0.0069489405 0.114884265 -0.02272841 0.07146743 -0.0038001945 0.19080725 0.06748819 -0.2925057 -0.0861386 0.1850566 0.04290911 -0.010079256 0.13508081 -0.1269025 -0.007980525 -0.060314048 -0.117691115 -0.09100526 0.045459323 -0.07076073 -0.01845406 0.00019553331 0.09837679 -0.050076187 -0.20870002 -0.14563532 -0.07637688 0.14473747 0.16010942 0.15026328 0.049486153 -0.14456265 -0.030718004 0.23105738 0.033828713 0.004510758 0.054632016 -0.19412002 -0.084670514 0.001117687 0.055621527 0.037885882 0.0041231387 0.08634254 -0.028426357 0.05793428 -0.107430845 -0.16137795 -0.07831923 0.22022568 -0.028535021 0.14930472 0.102028444 -0.1368952 -0.1479164 -0.107379444 -0.027655575 0.052439515 -0.12010901 0.08575895 -0.04854186 -0.04067776 -0.07564195 0.12512784 0.036285497 0.08578371 -0.10608018 0.12008512 -0.1595113 0.0014621526 -0.011120878 -0.032715578 -0.0046024327 0.047800776 -0.04648599 -0.019128472 -0.011536223 -0.054057695 0.018082954 0.0895681 -0.11370115 0.11799688 0.07173561 -0.006349591 0.04087931 -0.08258255 0.29132363 -0.16053198 -0.037491556 0.06451617 -0.06359871 0.07479904 -0.17939115 -0.16791995 0.080643624 0.012077397 -0.065360464 0.08100523 -0.007799476 0.08489077 -0.0046645068 -0.05353399 0.06801646 -0.15211035 0.2419861 0.09289928 -0.08547943 0.09662135 -0.07052513 0.25034273 0.021335702 0.13072915 -0.07668935
730 0.13889633 -0.11341659 0.051124204 0.062581785 0.0154104065 -0.112699725 0.11023266 -0.04797038 0.050390173 -0.11514069 0.036180116 -0.028468862 -0.016285297 0.08344568 -0.010350442 0.027546717 0.023715312 -0.19962414 -0.032026604 0.05031641 0.13084507 -0.013827947 0.056528065 0.07076759 -0.013533835 0.21820512 -0.08642306 0.048078187 0.094901666 -0.083705336 0.12011566 -0.031934757 0.09232528 -0.07605113 -0.09485061 -0.07090533 -0.13628533 -0.10131573 -0.14386857 0.053292364 -0.06118828 0.21361277 -0.12613261 0.108355686 -0.058869075 -0.3159185 -0.04305207 0.093850315 -0.032895837 0.038723502 -0.025144765 0.04874232 -0.06298364 -0.0498149 0.20361379 0.009979807 0.08240074 -0.18418291 -0.093829654 -0.20047304 0.10184397 -0.1349533 -0.055612914 0.2168819 0.17582028 -0.16792212 -0.15745363 -0.2218001 0.06390728 -0.16008535 -0.13841398 0.08713465 -0.15225573 -0.0101032555 -0.03327789 0.0030159906 -0.10776829 0.049286783 -0.19737774 0.111733496 0.06715285 -0.009976026 0.00661014 -0.16713214 0.16477518 -0.018420767 0.036542486 0.09139865 0.22214146 -0.04284052 -0.13263369 0.04251512 -0.006955084 0.09291197 -0.2539809 0.02896713 0.024818104 0.0833533 0.16384749 0.06289239 -0.101405576 0.19574971 0.11608824 0.017180534 -0.111232586 -0.1285286 0.02512684 0.03582729 -0.055400092 0.013802355 0.031514127 -0.13074441 -0.10542125 -0.08806828 0.07193271 0.09224245 0.057575464 0.00702427 0.031732887 -0.044624146 0.12102153 0.03956675 0.107044995 0.116420396 -0.11588203 -0.0072269393 -0.03873247 0.061519254 -0.122294456 -0.06765922 0.19438045 0.066807926 -0.06017616 0.12249282 -0.08338428 -0.11723889 0.1443847 -0.021679303 0.07792502 -0.25276968 0.0039077047 -0.011364373 -0.039238766 0.046222907 0.1644631 0.11057233 -0.06677028 0.10088284 0.057063177 -0.12541446 -0.04566668 -0.0217491 0.07195985 -0.102385424 -0.0077332486 -0.060590647 0.04611012 -0.08133315 -0.029996667 -0.0697614 0.15605386 0.101346195 -0.00970852 -0.13091405 -0.03197092 0.025800517 -0.084978215 0.09428137 -0.05195808 -0.030246122 -0.026250675 -0.14941004 -0.077330306 0.08734866 -0.17852661 0.112841725 0.06648696 -0.0300698 -0.08142376 -0.24474475 -0.06693031 -0.043371968 -0.12828074 0.050960135 0.0637832 -0.018145937 -0.04211891 0.0036023841 0.06315704 0.0352519 -0.16367595 0.207097 0.081828475 -0.10393056 -0.09917578 0.17357776 0.05125659 -0.1538018 0.058652684 0.01869295
850 0.18299031 -0.27424672 0.24480753 -0.018947037 0.0045531834 -0.0055499976 -0.06801446 -0.08075987 -0.019417046 -0.03193538 0.1127685 -0.09839756 -0.09534621 -0.09242714 0.01356826 -0.09932207 -0.13926633 0.029775094 0.069994606 -0.011649043 -0.10284235 -0.03732561 -0.035334446 0.15140603 0.16216145 0.18995196 -0.119339764 0.043008607 -0.080863915 -0.10002889 -0.13254894 0.11026083 -0.008097689 0.016061533 -0.07639529 0.0025548653 -0.12134948 0.18535909 0.049285274 0.19198029 -0.06076814 0.25181854 -0.20256668 -0.079036996 0.0326666 -0.1215108 -0.044689983 -0.1725719 0.097012214 0.0155746285 -0.1424286 0.14475678 0.014546686 -0.06990718 -0.07040865 -0.11896013 0.14983474 -0.05469254 -0.13323359 -0.21107738 -0.078618646 0.04986764 0.11008379 -0.01743606 0.051037885 0.030838728 -0.07024787 0.069180645 -0.024796404 -0.18118742 -0.007664244 -0.11730307 -0.027050825 -0.105573006 0.07973432 -0.08768877 -0.08970514 -0.010037003 -0.09439167 0.0979256 -0.23186925 -0.038907 -0.1906856 -0.15568697 -0.054152895 0.23637405 0.0151884295 0.21193658 0.096930094 -0.035621993 -0.1050077 0.03714292 0.056611937 -0.003080618 -0.046686143 -0.19484048 -0.062403273 0.10033023 -0.2429669 0.1587786 0.19235969 -0.066608414 0.038041245 0.10348211 -0.025283867 -0.16175118 0.0040159356 -0.2572404 -0.09582139 0.2097958 0.066706836 -0.11931328 0.0028356696 -0.1960833 0.33373627 0.067776516 0.08925182 0.011794081 0.034136754 0.12348602 -0.054307427 -0.10008775 -0.139403 0.1260981 0.010738362 0.24895073 -0.0584346 -0.095929004 0.010460064 0.044618987 0.042996183 0.042742025 -0.013897638 0.06695685 -0.026196633 -0.021031167 -0.019990781 0.104617074 0.14875099 -0.16921426 0.008636408 0.05762926 -0.037291232 -0.10821861 0.12424659 -0.05200988 -0.030242044 -0.07377867 -0.030025369 -0.14922127 0.10787018 -0.06111346 0.07469289 -0.08793719 0.06166567 -0.2607379 0.22480324 0.019432329 -0.042843167 -0.18703704 -0.1368788 0.049799614 0.0039721513 0.041535866 0.07667412 0.2048691 -0.1594321 0.0058158883 0.04380098 0.23593457 0.034328204 0.08117445 -0.17656235 0.1714263 0.093044564 0.07382127 0.05740164 0.023131654 0.09001048 -0.12826185 -0.112453684 -0.10827447 -0.0031016853 -0.18908782 0.072152086 -0.09164867 -0.1134697 -0.06896071 0.07232913 0.010356615 -0.07355871 -0.13248828 -0.1315376 -0.07579311 -0.035762895 0.06408187 0.09932682 0.03597319 0.104600824 0.06634522
223 -0.04255051 -0.074198395 0.08430627 0.12522106 0.105604194 0.08188001 0.0113539575 -0.014398931 -0.17015836 0.015813338 -0.015460997 -0.0022864428 -0.013596284 -0.19980367 -0.018793382 -0.12384175 -0.029177837 -0.087228596 -0.0020856343 0.050428532 -0.023457633 0.069081575 0.06059237 0.13195087 -0.004127863 0.2008492 -0.07283452 -0.13866161 -0.22148341 -0.06270845 0.0869854 -0.23174286 0.05739134 0.03353669 0.0016609475 0.14419028 -0.105944164 -0.09301937 -0.044770457 0.1445605 -0.027521214 0.035245053 0.021238146 0.06923737 0.0011601346 -0.033384062 -0.11541812 0.045176424 -0.01963586 0.09504069 -0.20285656 0.20521806 0.108685575 -0.05952521 -0.028088149 -0.20757622 0.086246476 0.064666726 -0.1966924 -0.077235 0.18503489 -0.13175406 0.059536748 0.11266701 0.19322284 -0.07360228 0.015552999 0.0362358 -0.06080152 -0.21375993 0.039378528 -0.10776934 -0.06055362 -0.10250414 -0.14314224 0.08923772 0.051390592 -0.12631555 -0.3742061 0.14668216 0.056944266 0.1526926 -0.17964941 -0.22792305 -0.05737721 0.29524422 -0.19260903 0.10129159 0.16463563 0.037461206 0.16172004 -0.06355317 0.05989203 0.050177827 0.12900501 -0.082442276 -0.06037554 0.29579264 -0.09623995 0.055065386 0.15864511 -0.014351732 0.037105802 0.087001726 -0.032502715 -0.16172771 0.116956346 -0.18041669 -0.09040437 -0.10356574 0.044799913 0.19214919 -0.0096556675 -0.08288057 0.14030728 -0.023567336 0.17188884 0.17488705 0.1155322 -0.14846462 0.13880023 0.1088204 0.048648577 -0.009290437 -0.055134173 0.11598624 -0.103833616 0.039260402 0.06974114 0.22478321 -0.20011406 -0.24764061 0.0149169555 0.05131825 -0.11819423 -0.049788747 -0.058200713 0.15347773 0.26521182 -0.08260333 -0.0058511477 -0.07692207 -0.05142741 -0.011152586 0.21045527 0.0026143643 -0.24272609 -0.060117822 0.031515732 -0.08170759 0.08950386 0.095837325 0.05227241 -0.11764907 -0.045717016 -0.23742376 -0.06054789 -0.036198534 -0.040873848 0.0011938423 0.10181879 0.13815922 -0.05538512 -0.11277039 0.086326994 -0.00035210553 -0.26668873 0.13002731 0.08538542 0.034253772 -0.0984582 0.0238735 -0.01251192 -0.08003609 0.17014596 0.085799634 -0.13840501 -0.04195534 -0.2201527 -0.12429754 -0.1825097 0.050245546 0.007866285 -0.06064986 -0.003722375 -0.037215393 0.11700304 -0.0032388896 0.0006496836 0.051957153 -0.16935696 0.006821367 -0.059803944 -0.0341863 -0.173643 0.029695746 0.102841124 -0.020821404 0.24191728 0.1663148
1059 0.11012382 -0.048814062 0.023312695 0.014383797 -0.0054662265 -0.0036661748 -0.03392344 -0.10302384 -0.014388566 -0.09510777 0.10487839 0.03198201 -0.01344211 0.068652086 -0.10001818 -0.012550678 -0.2761529 0.03519963 0.022227984 -0.07378241 -0.027501287 -0.09200642 0.020009782 -0.1822444 0.0026468723 0.04967511 0.12459071 -0.08150538 -0.16149004 -0.24972138 -0.08947682 0.09897101 0.0092876535 -0.04570229 -0.0962896 0.18785137 -0.061849073 -0.048487358 -0.031645745 0.05938411 -0.0972796 0.299916 -0.015786953 0.043558605 0.029747684 -0.105835326 -0.022673924 0.049810626 0.27338508 -0.104809225 -0.15432759 0.17966765 0.11241456 -0.097647816 0.14053856 -0.072080374 -0.074645355 0.22551094 0.07884498 0.099845506 0.20604019 -0.009697955 0.07212865 0.045899685 0.04205276 -0.018486494 -0.03619352 0.07974781 0.15707232 -0.014068031 -0.0011125598 -0.030862968 -0.032163817 0.15754816 -0.02979298 0.19887061 -0.07968414 0.0039665634 -0.13823047 0.11375776 -0.059168275 0.18274955 -0.016898906 -0.18779169 0.030647522 0.06786925 0.09817087 -0.033743393 -0.17792556 -0.1063968 -0.059158232 -0.07475917 0.07285832 0.007551541 -0.09363827 -0.13193275 0.1319996 0.008140489 0.17793278 0.14408112 0.03225969 0.012939966 -0.13675183 -0.055766534 0.04650891 0.032906763 -0.056862313 -0.29903373 -0.057868283 0.24410643 0.11032056 -0.06451496 -0.0813644 -0.11541076 0.029651491 -0.15433414 -0.09104944 0.006532318 0.2065031 -0.13262172 -0.06774425 0.06245382 -0.047659304 0.14336038 0.017508715 0.0059765507 -0.07614208 0.09537886 -0.22574198 0.08758343 -0.33285618 -0.034551226 -0.1199673 0.011524046 -0.18974113 0.18928285 -0.1126189 0.14153343 -0.07340262 -0.15175182 -0.063097015 0.011010722 0.17464386 0.11715113 -0.08741029 0.04709719 0.11688308 -0.021885635 -0.008762233 0.0051469156 0.0009311267 0.21448702 -0.24420743 -0.04566683 -0.098217085 -0.070660874 -0.022760905 -0.06296646 -0.067038104 0.08910137 0.16735953 0.14084503 -0.02991959 0.17829353 0.08313709 0.11263003 -0.10304554 0.036455423 0.09614758 0.13486704 -0.014218227 -0.047526687 -0.08143492 -0.0898813 -0.06223582 -0.12973161 -0.23169495 -0.0020161052 0.1212466 -0.03358635 -0.1182192 -0.008296768 -0.07268489 -0.1069287 0.19132243 0.15610126 0.14618216 -0.04646213 0.060351007 -0.10128751 -0.08956312 -0.09424779 -0.063522875 0.16290021 -0.015671272 0.038624514 0.23754245 0.060352903 0.046628214 0.1450954
706 0.08949071 -0.22623977 0.2383224 0.030245248 0.020576434 -0.0017640068 0.023499398 -0.127409 0.18035644 -0.0846994 0.17875288 0.2062218 -0.097745255 -0.007360454 -0.25165725 0.031664945 0.07272094 0.15266828 0.04260756 -0.135452 0.013073589 -0.14783543 0.005778261 0.07175903 0.1052223 0.047136713 -0.17265685 0.023981739 0.01839845 -0.020080691 -0.026176717 0.016804729 -0.008498109 0.0463645 -0.20508362 0.029740546 0.011342883 0.033152957 -0.14127609 0.12631027 0.11584407 0.1920796 -0.163299 0.07115086 -0.09154769 -0.116484076 -0.2668944 0.11268345 -0.16254279 -0.014743701 -0.15832205 0.050497327 0.029291445 -0.12003105 0.020421185 -0.08125178 -0.02080478 0.0027240268 0.09238582 -0.096947916 -0.012128765 0.08605305 0.13510935 0.21472572 0.0858327 -0.08996368 -0.032355152 -0.22038732 0.049261633 -0.06532409 -0.08033682 0.06262702 0.078092635 -0.027111866 -0.104897924 0.067817934 -0.07620864 -0.3267683 -0.21566583 0.11142242 -0.17195714 0.059722126 -0.06226859 -0.016145872 0.008044229 0.044747394 -0.109090485 0.14790048 -0.016697109 0.0601019 -0.027504222 0.060565487 0.09637052 -0.009626504 0.09442368 0.011170741 -0.074198626 -0.03810787 0.07722527 0.038105797 0.026215322 0.08292639 -0.04060127 0.14656022 0.07344265 -0.16535671 0.071509376 -0.30538517 0.08654916 0.37993038 -0.024694212 -0.027898531 -0.09026163 -0.2557389 0.08597721 0.19763671 0.090625346 0.09885866 -0.114302 0.15313469 0.26166037 0.10405513 -0.05617781 -0.04303251 -0.12874041 -0.039862894 -0.16434744 -0.009112338 -0.0070997896 -0.028934758 0.04120587 0.10001942 -0.122106776 0.15246958 -0.03874907 -0.006130186 0.030656584 -0.013285689 0.13132294 0.03409829 0.031279743 0.23013148 0.11072438 0.07557169 0.005377584 -0.13094254 -0.0009953339 0.13171697 0.06099977 -0.055810627 0.06802916 0.0670614 -0.08967124 -0.2262292 -0.12682477 -0.09164816 -0.1167759 0.080504924 -0.1202177 -0.12959151 -0.18432026 0.28377184 0.0125112785 -0.048316017 -0.13201238 0.081342496 -0.10002653 0.04222237 -0.019186806 0.30337763 0.024210319 -0.09470409 -0.051305432 0.046599757 -0.032176428 -0.06161834 0.031322204 0.094383195 0.076671034 -0.22373934 -0.15838599 0.0042927093 0.16011566 -0.08227994 -0.0040000384 0.21180397 0.08096479 -0.08177771 0.065203145 0.11368829 -0.07625433 0.22639777 0.004570298 -0.35748518 -0.13046286 0.09458287 -0.26704058 0.15684249 0.072611935 0.048309125
456 0.15239017 -0.10415009 0.2819875 0.05373998 0.024404712 -0.08778673 0.08439776 -0.20512432 0.06450839 0.053291332 0.07788087 -0.0653421 -0.062407378 0.09947293 0.056913354 -0.07034437 0.0013692062 -0.14914317 -0.14269832 0.066847704 -0.023240644 0.00343511 -0.04615575 0.1427204 0.19975926 0.044960063 -0.08500899 0.0023906298 -0.20665678 -0.0224896 0.031104121 0.13726963 0.08934615 0.061186064 -0.002246779 0.07913441 -0.19358839 0.075002275 0.04692132 0.059601493 -0.078416005 0.15400402 -0.19149853 0.029750858 0.03488652 -0.15840894 -0.15051053 0.08190431 0.06263872 0.030116118 -0.13559474 0.2265245 0.0563561 -0.024052866 -0.08284539 -0.052373696 0.06028333 -0.15098074 -0.23102553 -0.0692551 -0.10701101 -0.07982007 0.08450566 0.096375026 -0.049380504 0.05151327 -0.07317099 -0.10437814 -0.019732798 -0.22832218 0.121083006 0.0037657495 -0.10551056 0.08895234 -0.01550785 -0.19777878 -0.03723759 -0.02206852 -0.19897449 0.14914237 0.097558446 0.045830317 -0.11888454 -0.31375387 0.06641181 0.11242425 -0.01584469 0.3195962 0.083014876 0.09299104 -0.016240269 -0.019306857 0.09592113 -0.049581777 -0.039048176 -0.17149991 -0.21326837 0.14451121 -0.23845787 0.16787095 0.13226674 0.114074424 0.05657564 0.06078915 -0.1339963 -0.1254975 0.10976048 -0.2748659 0.033522464 0.1279918 0.089637615 -0.15105331 0.0285756 -0.17034979 0.26591432 -0.055709515 0.1001214 -0.079382665 -0.019948006 0.032399528 -0.062850036 0.024710648 -0.095416285 0.057909682 0.039424784 0.2935116 -0.021276915 0.09714885 0.029123617 0.14246932 0.06674501 0.05956553 0.0759147 0.0128261065 0.03410323 0.004143868 -0.037080523 0.15014979 0.14119154 -0.18477127 0.05683041 0.1245427 -0.01037479 -0.0810449 0.061174955 -0.06567912 -0.11514397 -0.019698005 0.03230062 -0.10276501 0.1843987 -0.076422244 0.02362 -0.0807027 0.070462696 -0.12285508 0.1286123 0.18114269 0.084249794 0.011072926 0.014692801 0.16949992 -0.053209707 0.083027326 0.05117493 0.05410278 -0.15494831 -0.0014084072 0.0839192 0.11728776 0.17264032 0.22238994 -0.09999857 0.046202946 0.14380553 0.10954499 0.028306374 0.04522104 -0.056183938 -0.12718794 0.010007413 0.00395084 -0.16176715 -0.029762309 0.12329702 0.119756594 0.07498411 -0.014457174 0.0274085 -0.06496611 -0.13792133 -0.06725772 -0.16969627 0.06574235 -0.075041704 -0.0010610259 0.059770204 0.08759899 0.1364798 0.16100246
954 -0.035351507 -0.33001143 0.26223338 0.14254284 0.0031451525 -0.0363029 0.06337396 -0.10895918 0.12752363 -0.022487571 0.20492975 -0.09595458 0.009346213 0.06522428 0.10133825 -0.034013398 0.00867295 -0.09422673 -0.0662832 0.010127568 -0.14967345 -0.061348714 -0.030346636 0.08430736 0.18819566 0.1861218 -0.04406625 0.033228062 0.0021975439 -0.15698148 -0.105421975 0.007932511 0.030926641 0.062271502 -0.19502349 0.08015471 -0.047496296 0.1251417 -0.0019387235 0.14779443 -0.0043258043 0.17208329 -0.18661743 0.03512591 -0.0030565138 -0.011399838 -0.17672686 0.0552427 0.017072083 0.09184275 0.022668345 -0.014545666 0.105072446 -0.14823157 0.15153956 -0.14392827 -0.016825711 -0.045217197 -0.12024608 -0.001832859 -0.021867525 -0.24172878 0.14204569 0.19297872 0.053645734 0.13655852 -0.09247316 0.07012947 0.017010922 -0.031176634 0.16085969 -0.12317069 -0.14958976 -0.03134526 0.1274028 -0.10514685 -0.030334046 -0.034819152 -0.12379961 0.11507007 -0.18080477 -0.02521523 -0.12208098 -0.16123155 0.22188242 0.2008345 0.12707476 0.08941741 0.05932654 0.073977485 -0.06414892 0.07841819 0.050414186 -0.0824699 -0.09114396 -0.09524706 -0.026659826 0.26592603 -0.055729438 0.11590688 0.015117485 0.061750103 -0.0103828255 0.038535465 -0.11275795 -0.07505187 0.09752912 -0.25701183 -0.1889599 0.058400605 0.1738036 -0.052708622 0.060272284 -0.07548593 0.17571867 0.09771401 0.19123177 -0.007756016 -0.06564741 0.15018718 -0.042884182 0.11032308 -0.060453333 0.1406131 -0.1657699 0.122629404 -0.110881045 -0.10867767 0.13456154 0.13928226 0.13718782 0.12624119 -0.033764884 0.006329038 -0.068541475 -0.17159025 -0.006219034 0.055872563 0.19304341 -0.1693951 0.0915239 0.11956338 -0.09264776 -0.055715796 -0.015005455 0.0005304078 -0.103345506 0.007360179 0.06374677 -0.11301249 0.07761392 -0.053993523 0.04582283 -0.017382875 -0.119885325 -0.27839097 0.14295071 0.027573565 -0.048435647 -0.19118862 -0.08362028 0.30358455 -0.07195393 0.04521954 0.11930578 -0.014016449 -0.024982367 0.029815145 0.055312824 0.073423564 0.081911504 0.1442993 -0.09704375 -0.096463256 0.22834124 0.121068545 -0.023263508 -0.061687488 0.049321406 -0.0671748 0.0136291 -0.12507318 -0.078290865 -0.018040013 0.16489998 0.15454961 -0.07093629 -0.047876716 0.010290967 -0.077184655 -0.08578003 -0.21018922 0.015654778 -0.027720233 -0.058421034 -0.096934795 0.028919846 0.10519086 0.05624387 0.16354004
652 0.08954184 -0.20309013 0.16405818 0.25095722 0.09148092 0.021967208 -0.14201003 -0.01640248 -0.135395 -0.07399431 0.070213795 -0.084589936 -0.14283359 0.012880913 0.0143049145 -0.09335878 0.091563344 -0.02473009 -0.046759415 -0.05144928 -0.047406085 0.25220832 -0.14847916 0.17320158 -0.010322864 -0.055396285 -0.004044948 -0.062395435 -0.017991636 -0.138633 0.08049147 -0.06360943 0.09386683 0.11845465 -0.14429435 0.02812208 -0.15515615 0.06390092 0.038514756 -0.018864365 0.0014450384 0.07174027 -0.05853957 0.10107759 0.06689444 -0.058506653 -0.0028461176 0.12248432 0.06177419 0.12961864 -0.20823042 0.09846221 0.2112121 -0.074912235 -0.098477334 0.02619994 0.07454581 -0.041266445 -0.1681997 -0.06836685 0.06585351 -0.14385538 0.055171672 0.10597361 0.01387532 -0.024721153 -0.064660124 0.029542195 0.019061403 -0.1453302 0.12849028 0.055409364 -0.121705905 -0.16061677 0.059309907 0.058423106 0.03265059 0.0035082798 -0.31717587 0.20004645 -0.17208503 0.02710078 -0.09559932 -0.14722826 0.25520867 0.24549362 0.012433207 0.11045152 0.04044618 0.26456302 -0.07083093 -0.091981985 0.123642765 0.104021676 -0.17528227 -0.06641934 -0.04572889 0.15625802 -0.0038734877 0.094009444 -0.08317343 0.09128767 0.064948805 0.011910574 -0.13234246 -0.15094556 0.030673742 -0.41770253 0.004030969 0.07505219 -0.005405736 0.034449227 0.005300352 -0.10306187 -0.111191325 0.0101081105 0.24984452 -0.13234264 -0.07245941 -0.058010247 0.07335306 0.06294219 -0.02532943 0.08150015 -0.09640743 0.047146372 -0.08543972 0.103233606 -0.074147515 0.12112013 0.11984124 0.012926076 0.050127745 0.10041026 0.078932665 0.05186622 -0.113057315 0.006970203 0.16908684 -0.1490846 -0.08949362 0.09635743 0.0029083395 -0.052924987 0.041111987 -0.16979162 -0.07161557 -0.20415379 -0.04076127 -0.0044341637 0.27084854 0.04978088 0.018748092 -0.090934835 0.043108538 -0.15702194 0.021185806 0.007799239 0.04334034 -0.056779314 -0.14922443 0.32660723 0.070793584 0.06652351 0.038478628 0.32620925 0.024663255 0.2124333 0.012733805 0.06066473 0.12418639 -0.015611161 0.010291327 0.13799119 0.1705147 0.08523665 -0.1593401 0.010657809 0.07583142 -0.2594673 -0.09464401 -0.0196573 0.012361654 0.0016770015 0.03333378 -0.103117146 0.091519125 0.0072932974 8.872646e-05 -0.20912407 -0.018944988 0.03641932 -0.0056164917 -0.098923296 -0.07822795 0.12766594 0.050511606 -0.028497148 -0.06307802 0.059960533
836 0.11750996 -0.21834172 0.09316508 0.21219547 0.10011894 0.0018004591 -0.113710076 -0.05851542 -0.10599645 -0.015438675 0.047706112 -0.09537597 -0.16836804 -0.025881572 -0.04425983 -0.03980114 0.07954805 0.0039463993 0.022986397 -0.12825172 -0.08206183 0.25138563 -0.20380655 0.11055296 0.021771982 -0.01532787 0.0050300285 -0.101659596 0.046188466 -0.2295413 0.10107433 -0.08450061 0.057292417 0.13556561 -0.16055128 0.061172716 -0.16248856 0.036062494 0.015974818 -0.04175002 -0.06258318 0.05546457 -0.07302666 0.0077080773 0.06759279 -0.05642655 0.021794762 0.12875032 0.107606836 0.13161837 -0.16887234 0.08471235 0.25107703 -0.12964153 -0.09684298 0.06629296 0.08975253 -0.057506133 -0.15116164 -0.03841664 0.047526114 -0.08801519 0.07639652 0.06647872 0.08839196 -0.00064468477 -0.070474155 -0.0023614771 0.0006732701 -0.22365344 0.14059645 0.05965785 -0.16507001 -0.25230736 0.10081035 0.055671964 0.06616254 -0.020450145 -0.23395543 0.22139487 -0.15219297 0.09738005 -0.09434119 -0.12828118 0.25117972 0.3437353 0.023640681 0.10435581 0.104662895 0.25693816 -0.121310346 -0.06525269 0.05316908 0.115035355 -0.26022175 -0.12273952 -0.024815483 0.11832022 0.01562604 0.12866756 -0.09499345 0.07566866 0.05031793 0.02111621 -0.104514904 -0.13991413 -0.006515673 -0.3454285 0.024898486 0.12452009 0.05993942 0.06266693 0.083382465 -0.1229163 -0.122170724 0.021148631 0.28990233 -0.066366434 -0.097079955 -0.00087838824 0.10638914 0.07048645 0.03033995 0.040262405 -0.0762039 0.028197352 -0.046553332 0.06928414 -0.08794552 0.06653798 0.14681606 0.02033231 0.011865666 0.15955634 0.11848176 0.11557382 -0.09805768 0.0037589245 0.17277488 -0.16529983 -0.0144899115 0.119948365 0.04928289 -0.014381445 0.08568236 -0.13686009 -0.04691762 -0.16693103 0.023670146 -0.051470872 0.1782242 0.06798667 0.027236164 -0.08128363 0.07771223 -0.17742147 0.039706215 -0.10582288 0.043748524 -0.05210985 -0.16153775 0.30851862 0.07248675 0.050082646 0.0021905925 0.31006333 0.0051730173 0.19196367 0.065842524 0.096202515 0.18010601 0.023539037 0.024629189 0.0985812 0.15308203 0.1332703 -0.11580337 -0.000610813 0.048898946 -0.244365 -0.11682678 -0.03826944 -0.004899191 0.032805786 0.055355847 -0.09723315 0.0013820417 0.015668996 -0.06292993 -0.17401038 -0.06385264 0.052123662 0.043768063 -0.100067265 -0.09661796 0.10408557 0.057922374 -0.07098717 0.0020493711 -0.0051298817
802 0.165736 -0.2649069 0.019629013 0.1100609 0.09396358 -0.052430145 0.089159474 -0.0058294507 0.01779218 -0.023181332 0.19517127 0.045739125 -0.03789326 0.08902057 -0.124206595 -0.02208815 0.056398574 -0.06280671 -0.051526826 0.0023923076 -0.12766074 0.03392316 -0.11537363 0.100916296 0.17845425 -0.013218467 0.041343875 -0.022638021 0.112252414 -0.01934725 -0.119385384 0.024512557 0.17546014 0.07130772 0.027371502 0.1685231 -0.02671548 -0.0142345745 -0.10027359 0.15046121 -0.006233014 0.22666954 -0.06315591 0.0319374 -0.101574734 -0.13879274 -0.05848495 -0.07866441 0.09044297 0.09410524 -0.20545346 0.2518913 0.0054446664 0.06680582 0.32034686 -0.09809451 -0.0035466256 -0.013596992 -0.11486672 -0.11578854 0.030592266 -0.07421206 0.14163183 0.084691815 -0.03275512 0.02956384 -0.21804315 0.09807493 0.15070598 -0.033735007 0.03233823 0.02199648 -0.075009756 -0.06706563 0.0015498089 0.037282243 -0.015909178 -0.13564335 -0.07995822 0.17536208 -0.23033744 0.006237104 0.036402658 -0.25667703 0.22301738 0.20095223 -0.09605153 0.13776758 -0.038006727 0.055424266 0.03679644 0.09876941 -0.0067089624 0.040223237 -0.0394643 -0.12438171 -0.092227064 0.112377174 -0.017248115 0.111113824 0.19114867 0.04103457 0.16429704 0.12837787 -0.05946749 0.032792192 0.08533988 -0.21009922 -0.12500991 0.06687951 0.077404745 -0.08194636 0.041554783 -0.3379118 0.23406887 0.072849765 0.15253125 -0.013544591 -0.06329878 0.14495982 0.059125826 -0.045308605 -0.031221092 0.10770305 0.007824471 0.031720173 -0.08363159 -0.085199416 -0.043416332 -0.03601935 -0.0030308678 -0.068958916 0.18295881 0.08438987 0.09614071 -0.032115716 -0.070450656 -0.055320807 0.11502829 -0.15710339 0.08530336 0.11007835 -0.05499453 -0.18758558 -0.024270639 -0.057712182 -0.11240735 -0.02650197 0.041614573 0.0016804974 0.073085435 -0.044679295 0.07934928 -0.19905525 -0.26907006 -0.20739639 0.101714194 0.09166624 0.07811698 -0.10531146 -0.059710555 0.22485521 -0.21288764 0.031466927 0.06463183 -0.008996355 -0.15783544 0.045828138 0.1893718 0.09353475 0.103941664 0.032748032 -0.11575046 0.090104915 0.22003993 0.059069157 -0.012118211 -0.117269486 -0.059272084 -0.23353483 0.025758602 0.045032468 0.0028194117 0.06010161 0.13307697 -0.021653498 0.046575792 -0.11474876 -0.060130917 0.003150597 -0.118747875 0.1302063 -0.11121536 -0.12599437 -0.11887763 0.066352464 0.0991468 0.050957818 0.11161727 0.063553
138 -0.014933839 -0.17418483 0.120106444 -0.12095447 -0.060927056 -0.09566146 0.065157026 -0.06489997 0.04516916 0.042634778 0.14531131 -0.096060686 0.22784896 -0.16305959 -0.0035385399 -0.0016624805 0.12632409 0.15110338 0.030680144 0.3085942 0.16126011 0.11006286 0.066854216 -0.12737398 0.0045483503 0.07954775 -0.19708015 -0.04496546 0.15155393 -0.2212012 -0.037511107 -0.084450394 -0.055363595 0.10808 7.037152e-05 -0.027805958 -0.068795055 -0.01549539 -0.024191601 -0.104090676 0.04050457 0.16922168 -0.11704495 0.105066754 -0.112795494 -0.007801547 -0.04836328 -0.15320575 0.049750514 0.06602692 0.022347294 0.15221883 -0.118539125 -0.10047649 0.08372537 0.00957211 0.027509367 -0.2043547 -0.051952913 -0.11340407 0.12293563 -0.0006926781 -0.052706536 0.08689309 -0.05380196 -0.34361923 -0.06793655 0.07023845 -0.06784818 0.0412509 0.011697868 -0.037971716 0.06533042 -0.18918839 -0.12772949 0.14378999 -0.07548876 -0.033283997 0.043338593 -0.054573536 -0.043902464 0.15467468 -0.04153364 -0.17414929 -0.063650794 0.14255498 0.20500466 -0.030105798 0.014492727 -0.078426294 -0.037257873 -0.0062416485 0.10869209 0.13407707 -0.044069864 -0.03902188 -0.16716981 0.007758063 -0.09090202 0.100359954 -0.18594216 0.17258655 -0.19062474 -0.026257822 0.07651689 0.017621052 0.0765149 -0.11103559 -0.09585155 0.049231052 -0.12472397 -0.14981493 0.098021254 -0.032362882 0.015875423 -0.0257321 0.10323518 0.01901018 -0.211345 0.083072096 0.10315006 0.08193081 0.043584473 -0.116708644 -0.1675492 -0.048586506 0.028171131 0.023478726 0.033292256 0.10838177 0.055521343 0.07894098 0.009476488 -0.058827665 -0.10879173 0.110538 -0.023989791 0.18321748 0.16491799 -0.04529471 0.22305259 -0.10755998 -0.08678584 0.18417543 0.11946881 0.056765962 -0.103341855 -0.090480536 0.01503408 0.016228752 0.14973743 -0.054465484 0.019970601 -0.026584825 -0.026526818 0.12882636 -0.100320294 -0.08026751 -0.0266724 -0.07377996 -0.0953516 -0.15152876 -0.08786659 -0.06419164 -0.10089169 -0.032576814 -0.27026403 -0.03611103 -0.05603623 0.14369226 0.04567984 0.028405154 -0.09393546 -0.05312543 -0.13527955 0.04530868 -0.117651395 -0.032283217 0.053840462 -0.17947005 -0.13677698 0.023932246 -0.049273454 -0.06309965 0.12128983 0.047079932 -0.0019226643 -0.09389265 0.19189471 -0.12248676 -0.07938469 0.04641968 -0.1255863 -0.16848867 -0.14349382 -0.10110378 0.20031987 -0.052614395 0.27066177 0.038796533
262 -0.022629065 -0.2838865 0.10360754 -0.039866775 0.11791196 -0.1415624 0.042273752 -0.09588178 -0.09355325 0.031205831 0.10286206 -0.13197272 0.09543919 0.03594159 -0.03621195 0.0036301601 -0.024360301 -0.24763647 0.11484284 0.03689742 -0.06250533 0.16170725 -0.0815687 0.1555865 0.22591507 -0.0025776995 -0.04671039 -0.030714761 -0.07040475 -0.028876796 0.029322349 0.06671818 0.20339379 -0.09882111 -0.12975335 0.103335544 0.041869096 -0.17297547 -0.049469773 0.07616342 -0.002838909 0.1648571 -0.066184565 0.06733053 -0.027879467 -0.19603057 -0.068238005 0.047291115 0.057316042 0.13576625 -0.07755341 0.13981438 -0.042976324 0.05366474 0.23339052 -0.06254941 -0.031147087 0.10053098 -0.0062054414 -0.04495876 -0.045573007 -0.19927113 0.0630269 0.020129269 0.06364509 -0.10166038 -0.14918442 0.03813631 0.033348415 -0.12324713 0.028733457 0.024072811 -0.23803577 -0.0096673975 -0.01726984 0.121715404 0.17897303 -0.034141194 -0.05514531 0.051788565 0.03154355 0.031919155 -0.08217486 -0.15693004 0.20112264 0.14172304 0.14336777 0.1307771 0.12510589 0.11070236 -0.016907686 -0.08097483 -0.12469172 0.048742052 0.026396137 -0.021481037 -0.10193454 0.0855342 -0.06702879 -0.03616426 0.18658692 -0.09231986 0.08320132 0.03681437 -0.15835048 -0.06689054 -0.05130954 -0.16038539 -0.09022528 0.032776784 0.12995273 -0.04198277 0.033882353 -0.11057074 0.12759285 0.117783815 0.18318914 0.079740345 0.03846021 0.10359789 0.098309755 0.11515379 -0.057280213 0.06909019 0.09260334 0.04266494 -0.075934306 0.004620649 0.012452504 0.030007152 0.11495002 0.10286495 -0.1891544 0.095058 -0.06041034 -0.009414378 -0.120455645 -0.06942049 0.28020963 -0.20533712 -0.07651093 0.032866687 -0.110342644 -0.10995737 0.037613586 -0.09503694 -0.14901559 0.034307774 -0.036130358 -0.056488555 0.19158237 0.11680069 0.12735225 -0.1244947 -0.23071879 -0.27144247 -0.1334898 0.019306613 -0.033823982 -0.15499945 0.056526747 0.29567155 -0.10214517 0.10599556 0.031215608 -0.010950859 -0.27750984 0.10176571 0.13921061 0.11562357 0.023473417 -0.12918094 -0.053297117 0.020242902 0.038426146 0.087316394 -0.072403684 -0.112632506 -0.08305667 -0.03605635 -0.12521414 -0.0014768372 -0.10784008 -0.0010318613 0.11559073 0.09291944 0.16551769 -0.1338541 -0.12151848 0.06380794 -0.26447433 0.004689125 -0.030671438 -0.17236376 -0.28250182 0.0666784 0.09251933 -0.09752169 0.178943 0.17440589
582 -0.097620666 -0.2226218 0.23514023 0.09008224 0.010784784 0.051477365 0.07691817 -0.09561387 0.04994206 0.23494674 0.20234798 0.09376976 -0.052613042 -0.0013067155 -0.0017965502 -0.05344291 0.058856364 -0.19469556 -0.048897788 -0.0015018485 -0.07090836 -0.03186235 -0.06901824 0.28168112 0.21637738 0.1856291 -0.0155182155 0.01850895 -0.04438672 -0.054452505 -0.09952426 0.026223393 0.10089295 -0.025734697 -0.14496651 -0.04793256 -0.055506032 -0.014991135 -0.09507339 0.09703102 -0.13183181 0.3837674 -0.13299194 0.070816204 -0.048258804 0.025221786 -0.21114583 0.07848598 -0.048019473 0.016796943 -0.12509495 0.1806375 -0.0571834 -0.08897585 0.04458789 -0.31267715 -0.17967932 0.04861649 -0.06015294 -0.16753231 -0.018575784 -0.14755552 0.11558526 0.16027386 0.04424227 0.12535965 -0.109634176 0.024113616 -0.100329764 -0.075050525 0.006476656 0.03376452 -0.1058699 -0.094234996 0.13107756 -0.060027756 -0.080628306 -0.029241914 -0.33247396 0.17003839 -0.15764214 0.08410445 0.14236338 -0.07443728 0.25114882 0.29119664 0.063180044 0.18235037 0.10243421 -0.060072996 -0.11714368 0.012953274 -0.14488257 0.0008251297 -0.07469565 -0.0962129 0.022818075 0.21369693 -0.15746471 0.03145719 -0.04038497 0.044363465 -0.15173043 0.021050937 -0.15614034 -0.09557118 0.085024625 -0.07925604 -0.052579466 0.09581134 -0.03218555 -0.01812184 0.121386096 -0.1718458 0.26206574 0.20218965 0.12649575 -0.10573846 -0.04481324 -0.015760874 0.1766983 0.03599047 -0.006092858 0.21412063 -0.07825233 0.050019734 0.11505678 0.12813348 -0.04786441 0.08515171 -0.08914024 -0.027958186 -0.059885237 -0.005674213 -0.022121673 0.0050661284 -0.08101955 0.13890062 0.089620456 -0.0017947651 0.12330922 0.12116854 -0.02347278 -0.061345346 0.097826645 -0.06861238 0.08371843 -0.03530021 -0.05451322 -0.053941593 0.23684157 -0.032441784 0.0685225 -0.27132517 -0.1515248 -0.1720568 -0.040171582 0.030571042 -0.027455729 -0.17200424 -0.1049906 0.21990184 -0.012497376 -0.11347117 0.13253859 0.057910763 -0.22881295 0.05772064 0.011958159 0.06396844 0.037517726 0.05532044 0.06510833 0.10235003 0.16915624 0.102613576 -0.20469497 -0.047097582 0.022955554 -0.096407235 -0.02514189 0.049441997 -0.06368452 0.049423065 0.13812819 0.07944611 0.04994775 -0.06110508 -0.11434063 -0.09858533 0.02783032 0.008924922 0.14338507 -0.0816977 8.133507e-05 0.0154075865 -0.015872752 -0.01860911 0.19708283 0.27777776
525 0.040245265 -0.10913602 0.17310762 -0.103440985 0.05383033 0.03297675 -0.11627619 0.19542068 0.14799874 -0.071785256 0.033309225 -0.07304765 0.012136321 -0.16887507 0.010749242 -0.0007989286 -0.012916243 0.072172605 0.2938984 0.08632617 -0.029075826 0.02515487 -0.015742201 -0.01634946 0.00402332 -0.105063416 -0.051825553 -0.022230715 0.27519974 0.0062327352 -0.15325773 0.025755027 0.17107306 0.0012966074 0.13826317 0.2077563 -0.02587369 -0.14730263 -0.021918477 0.004594727 -0.008495005 0.100147985 -0.01914603 -0.02843834 0.117576376 -0.052326627 0.061971698 0.09377188 -0.036572456 -0.015000582 -0.054586757 0.16971505 -0.11096149 0.065411076 0.071714625 -0.067046225 -0.03604965 0.05049725 -0.09870822 -0.051280025 0.18395492 -0.00921296 -0.17080578 0.2833568 -0.058757562 0.067189544 -0.005093915 0.0645501 -0.015374306 0.0519343 0.18581352 -0.15807053 0.098074935 -0.15430662 -0.052175596 -0.08808741 -0.13556078 -0.03714337 -0.09260764 0.0802579 0.014277575 0.11846769 -0.037288103 -0.279325 0.123152256 0.2181984 -0.05000931 0.07560551 0.10266154 -0.09436685 -0.00560615 0.0668249 0.08785646 -0.09615844 0.14235082 -0.08603116 -0.024398882 0.16904488 0.19166654 0.23443894 -0.022421906 0.10926024 0.14853331 0.1800986 -0.07355959 0.082812004 0.056791224 -0.3816031 -0.15308194 0.024210207 0.012273287 -0.29584745 0.061232757 -0.19738623 0.14214444 0.32778203 0.06456762 -0.036764313 0.048171993 0.09433318 -0.11777496 -0.0065518734 -0.16978861 0.2549436 -0.11147699 0.09026134 -0.11768041 -0.046946492 0.09316206 0.015622377 0.13897502 -0.02509759 -0.0017533305 0.16353908 0.01229005 -0.007965582 0.0462006 -0.20855938 -0.011504539 -0.14027135 0.051304545 0.10506143 -0.10202184 0.1762783 -0.037266944 0.06612914 -0.051425695 0.11115833 -0.0734489 0.045880698 -0.24042459 0.06708103 0.16203654 -0.118615545 0.018749118 -0.11627244 -0.030854374 0.075260274 0.041860845 -0.029091535 -0.022210566 0.020609772 0.06846428 -0.062526874 0.063227385 0.14027472 -0.23659858 0.052447774 0.13765524 0.045653082 -0.14672032 0.059097346 0.091011524 0.05908855 0.15087008 -0.002537968 0.13251469 -0.14941235 -0.10611169 -0.28256825 -0.091929846 0.16584922 -0.1177393 0.026716517 0.013895931 0.03995073 0.12716532 0.08192605 0.13844995 -0.05534614 -0.11629109 0.11639624 -0.13049622 -0.13184653 -0.17517959 0.19742988 0.23071976 0.014691351 0.06493741 0.09005079
471 -0.014770967 -0.36988953 0.17658098 0.18750381 0.18670993 0.043415986 -0.060651112 -0.22802354 -0.063053586 0.12875228 0.109391555 0.10610568 0.06973576 0.024549942 -0.038339183 0.030658865 0.2083505 -0.02349395 0.009475168 0.06318841 -0.26464495 0.13881944 0.028997516 0.017568052 0.08747391 0.09903576 -0.079431355 -0.018053386 -0.026460594 -0.034341894 -0.016150467 0.040368877 0.11672478 0.0219939 -0.19347481 -0.008265343 -0.1448421 -0.07281127 -0.19547552 -0.03224939 0.015474989 0.16897976 -0.2271824 0.090320416 -0.06731735 0.08203388 -0.13541366 0.048137166 -0.025699418 0.13720857 -0.15024425 0.15497433 -0.014869185 -0.11159042 0.048471663 -0.07164368 0.029259287 -0.031383183 -0.06518239 -0.11168582 0.0459335 -0.22529386 0.12787306 0.0062292214 -0.01596816 -0.004037607 -0.08568422 0.094746865 -0.086156264 0.030110005 0.17800169 -0.06840545 -0.09936576 0.07762901 -0.04701571 0.13902068 -0.117932394 -0.011130946 -0.1202847 0.10366396 0.011980032 0.035667896 -0.06581933 -0.2423773 0.30093855 -0.0869932 -0.04497886 0.14812218 0.058555573 0.13581538 -0.10509594 -0.11329835 -0.16762279 0.12813652 -0.066345625 0.062232543 -0.056633815 0.12307992 0.021113036 0.1325123 -0.02910163 0.051749893 0.06575437 -0.009414639 -0.12900274 -0.062343143 -0.0719172 -0.1419425 0.09277228 -0.17419912 0.21064286 -0.03178138 0.054944128 -0.07923535 0.098703936 0.085864596 0.17426933 -0.07614081 0.07023989 0.10637587 -0.13215385 0.04342325 0.12459339 0.050623275 0.043186814 0.11254905 -0.038462568 -0.070135154 -0.17841871 0.12310096 0.14080995 0.11342588 -0.095798045 0.16746905 -0.068384945 0.036686387 -0.13058718 0.042194877 0.11974469 -0.1399207 -0.12303833 0.1522918 0.07745765 -0.08488677 0.0012042786 0.021894604 -0.15859053 0.07405893 0.0322802 -0.09058181 0.14073507 -0.1884834 -0.09709724 -0.22952652 -0.17600594 -0.09012072 -0.18036743 -0.13915338 0.055877708 -0.06268308 0.012568767 0.2139532 -0.030533668 -0.002809741 0.025549447 -0.078183986 -0.122609995 0.23312087 0.12120486 0.030832088 -0.005033406 -0.049753655 0.025623595 0.2069781 0.13487639 0.08451629 -0.14171314 0.0038553865 0.03767606 -0.23658408 -0.13561687 0.19029757 0.06424079 0.019245515 0.08678628 0.059839856 -0.18185985 -0.13529637 0.040667012 0.07030892 -0.13957796 -0.067252226 -0.048032727 -0.18992962 -0.023854889 0.016395789 -0.043503422 -0.015281234 -0.06463862 0.054173864
699 0.17437157 -0.24521157 0.13570134 0.04888914 0.15644822 0.054087233 -0.146203 -0.14563006 0.08155573 0.12797382 0.13893402 -0.10640611 0.0438839 0.11832501 -0.107380494 -0.01491471 0.077031516 -0.017768614 -0.08489745 -0.024668364 -0.06087839 0.015493216 -0.0084839165 0.11535477 0.1859033 0.092773475 -0.15706183 0.093858354 -0.119175844 -0.06328083 -0.051620647 -0.1084794 0.097914696 0.0038069002 -0.12492731 0.07981376 -0.07708897 -0.03989407 -0.02563597 0.05610448 -0.015608864 0.23261996 -0.25027645 0.087291256 -0.027630713 -0.062259346 -0.14081289 0.14387463 0.03667761 0.08143565 -0.010417252 0.1760756 0.10921097 -0.104869895 0.031279102 -0.07345672 0.03573306 -0.08116954 -0.17676875 -0.20462185 -0.028251454 -0.1341264 0.15181525 0.10438512 0.14794195 0.015701266 -0.11792669 0.09756853 -0.0163662 -0.07827204 -0.01742604 -0.0035112456 -0.14463943 -0.116481714 -0.037307903 -0.003094897 -0.08307895 -0.10052066 -0.2024318 0.15723129 -0.12218643 0.058142032 -0.03694684 -0.21538664 0.057068348 0.124074906 -0.026345938 0.04025319 0.05114223 0.08573856 -0.1479703 0.013965074 -0.07112644 -0.11628364 0.04289243 -0.13410765 -0.21635525 0.1142509 -0.046881832 0.020782355 0.111849725 -0.063541 -0.030359708 0.06368124 0.02955058 -0.08975776 -0.0006694599 -0.15676245 -0.06261232 0.04042499 0.27144018 -0.17266655 0.11683166 -0.17527774 0.000599568 0.16283168 0.07068328 -0.05257069 0.09046894 0.12781872 0.16602951 0.12158836 0.142391 -0.006557565 -0.1727978 -0.0067905565 0.03705773 0.061455406 -0.042825785 0.2017307 0.057457533 0.0268325 -0.03693838 -0.016018594 -0.080478325 -0.08502617 -0.023400709 0.012260124 0.16703261 -0.25478977 -0.019838631 0.062265806 -0.13598877 -0.14767918 0.11885792 0.0035247018 -0.17306125 -0.064508095 -0.00072019186 -0.027744496 0.23179647 0.12499525 0.02759886 -0.06700797 -0.13728075 -0.2077721 0.05063875 -0.042113986 -0.024861967 -0.10700469 -0.18280451 0.4146487 0.024738237 0.00983977 0.105831765 0.04820425 0.02350474 0.11425888 0.13417046 0.09340624 0.07145745 0.062717795 0.06873845 0.054575898 0.09000047 -0.073403575 -0.017991703 0.011291632 -0.030211737 -0.30957606 0.07161348 -0.07306512 -0.13328186 -0.1255122 0.08568137 0.1469621 0.10156202 -0.19667375 -0.13096404 0.029623542 0.00878119 0.069699384 -0.023808515 0.011829606 -0.050668612 0.017301565 0.14329338 0.13552585 0.1338048 0.23401308
